0.00203747 0.0041452 0.00217799 0.000491803 0.000562061 0.00562061 0.00112412 0.00140515 0.00372365 0.00245902 0.00555035 0.00491803 0.00429115 0.00215378 0.00123923 0.00168512 0.00505855 0.00379391 0.00358314 0.00330211 0.00154567 0.00611241 0.00569087 0.00386417 0.00618267 0.00224824 0.000421546 0.000210773 0.00562061 0.0069555 0.00154567 0.00611241 0.00288056 0.00400288 0.00434221 0.00448997 0.00429713 0.00466849 0.00624637 0.00039962 0.00379668 0.00649376 0.00299616 0.00303447 0.00471215 -0.000208303 0.00166815 0.00396857 0.00620797 0.00036612 0.00495872 0.00587138 0.00274005 0.00519906 0.000210773 0.00175644 0.00302108 0.000351288 0.00583138 0.00484778 0.00091334 0.00343584 0.00446264 0.00162586 0.000844721 0.00341488 0.00480229 0.00639789 0.00139913 0.000351205 0.00141941 0.00149714 -0.00368573 0.00217253 0.000930358 0.00350417 0.000421009 0.0036815 0.000556519 0.00596927 0.00561154 0.00154567 0.00681499 0.000421546 0.00449649 0.00540984 0.0036534 0.00154194 0.00526633 0.0042097 0.000278471 -0.000465221 0.00107933 0.00887779 0.00456061 0.00396716 0.00307869 -5.14827e-05 -0.0023641 -0.00643765 -0.00336686 -0.00432977 -0.00140228 -0.00370511 -0.00437948 -0.00367815 0.000761254 0.000722407 -0.000448925 0.00448047 0.00372365 0.00309133 0.00660422 0.000983607 0.0028103 0.00183634 0.000215237 -0.0016172 -0.00163607 0.00658173 0.00209496 0.0058916 0.00966943 0.00406846 -0.00122353 -0.0248094 -0.0377814 -0.0462462 -0.0278732 -0.00641391 -0.0141068 -0.00753719 -0.00241675 -0.00321538 -0.00408357 0.00066815 0.00130483 0.000531094 0.00510908 0.000491803 0.00548009 0.00147541 0.00237946 0.00483806 -0.00346356 -0.00324067 -0.00351308 0.00233105 0.0100158 0.00890224 0.00971329 -0.011619 -0.011632 -0.0286625 -0.0461019 -0.027156 -0.0304786 -0.020284 -0.0159214 -0.0101404 -0.01541 -0.0133021 -0.0143617 -0.00514501 0.000272572 0.000647729 0.00451355 0.0016862 0.00407494 0.00309133 0.00576077 0.000484555 -0.000138323 -0.00548712 -0.00661825 0.010066 0.0208722 -0.00432962 -0.0102225 -0.00922342 0.00649682 -0.0142491 -0.0108106 -0.000368426 -0.0156452 -0.0093318 -0.0192166 0.00030633 -0.00813294 -0.00274561 -0.0112007 -0.00557272 -0.0101148 0.000122174 4.95571e-05 0.000961202 0.00569089 0.0033562 0.00366818 0.00195854 0.00103167 -0.0033436 0.00279753 0.0112052 -0.00525635 -0.0188453 -0.0154136 0.0154051 0.0140158 -0.0282124 -0.0552394 -0.0152176 -0.032213 -0.00949839 -0.0206204 -0.0229047 -0.0153263 0.00219573 -0.00348881 -0.00781182 -0.00789248 -0.00376876 0.000864891 0.00440023 0.00667455 0.00646702 0.00637481 0.00405727 -0.00667872 -0.0012264 0.014658 -0.00226151 -0.0239297 -0.016164 -0.0148772 0.000252748 -0.013137 -0.0472341 -0.045343 -0.0236013 -0.0259987 -0.0123051 -0.00148956 -0.0178868 -0.00894148 -0.00520303 0.0018046 0.00373483 -0.00415527 -0.00334753 0.0023997 0.00635865 0.00189697 0.000759287 0.00228089 0.00252447 -0.00935538 0.00542241 0.00298454 0.00616853 -0.0212415 -0.00355748 0.00598277 0.000550915 -0.00973703 -0.0454613 -0.0325746 0.000214792 0.00766926 0.0126109 0.0125735 0.0182541 0.00339034 -0.0104372 -0.00947537 2.72958e-05 -0.000397568 -0.00197122 0.00151615 0.00511648 0.000632319 0.000653394 0.00249013 0.000390624 -0.00567438 5.7349e-05 0.00107835 0.00260813 -0.00470929 0.00836078 0.0096851 0.00989817 -0.0112049 -0.0524714 -0.0495558 -0.0077985 0.0278171 0.0250449 0.0283804 0.022654 0.0152482 0.00523222 -0.00901836 -0.0140494 -0.00795755 -0.00446601 0.00590983 0.00608242 0.004637 0.00288011 0.000107432 -0.000657018 -0.00852081 -0.0215766 -0.00970963 0.0180365 -0.000877416 0.0163518 0.0264495 0.0105893 -0.00190236 -0.0521669 -0.0659549 -0.0288602 0.00258379 0.0315862 0.0279423 0.034405 0.0273866 0.0282219 0.000313525 -0.0126403 -0.00229534 0.00475278 0.00314476 0.00429602 0.00154567 0.00254926 0.00013435 0.000887004 -0.00766421 -0.0295258 -0.0184718 0.00225974 -0.00189653 0.0123281 0.015223 0.0143489 -0.0132882 -0.0676754 -0.0778105 -0.0440976 -0.0122229 0.0304802 0.0145403 0.0320897 0.0196818 0.0191615 0.0151169 -0.00440034 -0.00535784 0.00420121 0.00588236 0.00611241 0.00316159 0.00293678 0.00330397 6.48706e-05 -0.0131683 -0.0367343 -0.0232616 0.000189022 -0.00568252 -0.00962168 -0.001835 0.000774621 -0.0161775 -0.0611333 -0.0655408 -0.0215051 -0.0057754 0.010056 -0.00268786 0.0174866 0.0105399 0.00784681 0.0126438 0.00454879 -0.0121005 0.00755877 0.00119424 0.00126464 0.00168618 0.0023383 0.00502431 0.0021521 -0.00409501 -0.0355275 -0.0285743 0.00281342 -0.00691513 -0.0250914 -0.00981797 0.00842898 0.00673566 -0.0191497 -0.0404399 -0.0241684 0.00633039 0.00742611 -0.0135293 0.00199012 -0.0109844 -0.00969791 -0.00141969 -0.00125887 -0.0196108 0.00128596 0.002345 0.00266979 0.00463775 0.00262482 0.00429147 0.00618263 -0.00126484 -0.0260158 -0.0399559 -0.0146842 -0.00303133 -0.016101 -0.00470336 0.0042535 -0.00262119 -0.0335649 -0.0635466 -0.0397023 0.0163532 0.0136524 0.0060666 -0.00650994 -0.033507 -0.0246543 -0.007603 -0.0013727 -0.0246855 0.00601578 0.00719767 0.00379442 0.0012689 0.000340547 0.00197177 0.00293336 -0.00229483 -0.0170576 -0.0360202 -0.0134861 0.00400307 0.00867379 0.000583151 0.000522234 0.00241596 -0.025618 -0.0609697 -0.0329442 0.0292788 0.022325 0.00483047 -0.00225121 -0.0229843 -0.02451 -0.0250056 -0.00662128 -0.0173001 0.00667104 0.00169602 0.00486358 0.00302108 0.00440002 0.00108999 -0.00124961 0.00195 -0.00657422 -0.0306563 -0.0125234 0.0214316 0.0296148 0.0303749 0.0253797 0.0152563 -0.0157091 -0.0479307 -0.0332735 0.0108997 0.0233624 0.0051969 -0.00890348 -0.0123002 -0.0173468 -0.0207399 -0.0148395 -0.019121 0.00952833 0.00331679 0.00579922 0.00576504 0.00576059 0.0019608 -0.000983219 -0.00521592 0.00526394 -0.0122433 -0.0114321 0.0010656 0.0218198 0.0329276 0.0262869 0.0255474 -0.0200858 -0.0603333 -0.0466257 -0.00285751 0.0045234 0.00169036 -0.00832934 0.00174928 -0.0133243 -0.0172045 -0.035602 -0.0129547 0.00563499 0.00193273 0.00116413 0.00358314 0.00097708 0.00497017 -0.00298294 -0.00274987 -0.00273477 0.000360571 -0.0159338 -0.016305 -0.00516872 0.0212674 0.0113378 0.00361104 -0.0256117 -0.0572872 -0.0511115 -0.028896 -0.0190878 -0.0109632 -0.00698381 -0.0074129 -0.00801621 -0.0179077 -0.0331022 -0.00523732 0.00463759 0.00202542 0.0027072 0.00526932 0.00329796 0.000797747 -0.00519251 -0.0076197 -0.00306518 -0.00519936 -0.00491446 -0.0259145 -0.0284662 -0.0219419 -0.0249297 -0.0244111 -0.0273123 -0.0465559 -0.0519808 -0.0235526 -0.020443 -0.00946697 -0.000703691 -0.00356824 -0.0118458 -0.0355144 -0.0257382 0.000339123 0.00489957 0.00324053 0.00358314 0.000913349 0.00147007 0.00673151 0.000380313 -0.00716501 -0.00894929 -0.00371523 -0.00166327 -0.00809421 -0.018891 -0.0306693 -0.0340886 -0.0285853 -0.0277359 -0.0287453 -0.0365025 -0.0202676 -0.0147008 -0.0176528 -0.0159655 -0.0345686 -0.0424012 -0.0278209 0.00893137 0.00882461 0.00516298 0.000867203 0.000210773 0.00189696 0.00428571 0.00389723 0.0010891 -0.00796421 -0.00769532 -0.00430205 -0.00200092 0.00487245 0.00138916 0.000446644 -0.0113742 -0.0108961 -0.0160207 -0.0455236 -0.0616165 -0.0378737 -0.0437745 -0.0395239 -0.0383559 -0.0435054 -0.0255764 -0.00465603 0.00809564 0.00845388 0.00554916 0.00116629 0.00428571 0.0023185 0.00611241 0.00344505 0.00253988 0.00139189 0.00110666 -0.000698163 0.0058432 0.00432052 -0.00469085 0.0024216 0.0115328 0.00357372 -0.00503412 -0.0432113 -0.040078 -0.0140159 -0.0232374 -0.0278274 -0.0348524 -0.0125921 -0.00574034 0.00733413 0.00697805 0.00746436 0.000966439 0.00667447 0.00555035 0.00274005 0.00323185 0.00154199 0.00014979 0.00208553 0.00289987 0.000836652 -0.00365713 -0.00285927 -0.0142806 -0.00475586 0.00507351 0.00672698 0.00416633 -0.0131641 -0.0109462 0.0101016 -0.0101836 -0.0135376 -0.0153081 -0.00946852 -0.00172503 0.0117738 0.00969643 0.00645004 0.00266035 0.0023548 0.00604215 0.00112412 0.0018267 0.00442623 0.00568975 0.00204818 0.00659021 0.00383674 0.00377741 -0.00528468 -0.0101606 0.00283856 0.00655657 0.00723072 0.00817088 0.00353797 -0.00835972 -0.00685888 -0.0150976 -0.0106677 -0.0117852 0.000339629 -0.00550413 0.0133892 0.00937406 0.00194687 0.00425556 0.00179062 0.00330211 0.00667447 0.0023185 0.00154567 0.000767151 0.00623887 0.00430945 0.00492062 0.0023772 0.00412869 0.00909521 0.00873764 0.00846063 0.00373284 0.00514765 0.00364975 0.00819656 -0.00131578 -0.00118586 0.00217665 0.00353582 0.00511206 -0.00246275 0.00682004 0.00622845 0.0028103 0.00351288 0.00407494 0.000913349 0.00133489 0.00456674 0.00203747 0.00224824 0.00611241 0.00259964 0.00611211 0.00519673 0.000419085 0.00225266 0.00345498 0.00647448 -0.000593976 0.000245769 0.00674547 0.0043615 0.00699171 0.000474213 0.0069635 0.00732576 0.0013754 -0.000773707 -0.00182881 0.00112412 0.00245902 0.00477752 0.00161593 0.00470726 
0.00569087 0.00259953 0.00681499 0.00224824 0.00407494 0.00653396 0.00618267 0.00323185 0.00526932 0.00583138 0.00653396 0.00330211 0.00257666 0.00108902 0.00246089 0.00414528 0.00681499 0 0.000140515 0.000140515 0.00505855 0.004637 0.00555035 0.00168618 0.000421546 7.02576e-05 0.00407494 0.000772834 0.0023185 0.00583138 0.00639344 0.00309133 0.00400468 0.00276053 0.00161676 0.000963253 0.00462115 0.00276852 0.0067578 0.000614026 0.0064297 0.00371798 0.00493532 0.0021737 0.00190569 0.00287877 0.00540306 0.000344146 0.00105697 0.0026404 0.00234894 0.00402127 0.00688525 0.00252927 0.00217799 0.00407494 0.00224824 0.00681499 0.00625293 0.00351288 0.00358319 0.00241952 -0.000666392 0.00388953 0.00244612 0.0075218 0.00365649 0.00399193 0.000868139 0.00319701 0.00658248 0.00194442 0.00606779 0.00167607 0.000522913 0.00198272 0.00507524 0.00352068 0.00490993 0.00439458 0.00460095 0.00344262 0.00224824 7.02576e-05 0.00442623 0.004637 0.000772834 0.00478007 0.00611447 0.00162689 -0.00139018 0.000898975 0.00478587 0.00502077 0.00408755 0.00394737 0.0024609 0.00583177 -0.0120454 -0.00915059 0.00562049 0.00959475 -0.000630208 0.00380466 0.00367242 0.0059714 0.00184903 0.00235639 0.00277836 0.00229471 0.00611241 7.02576e-05 0.000351288 0.00533958 0.0064637 0.00464746 0.00609322 0.00581527 0.000771661 0.00186809 0.00164432 0.00300788 0.00188218 -0.00133431 -0.0073058 -0.022023 -0.0363273 -0.016028 -0.0191506 -0.00365902 -0.0053272 -0.00427071 0.00323809 0.00142837 0.00159027 -0.00486193 0.00168542 0.00527858 0.00321143 0.00555035 0.00400468 0.00028103 0.00125206 0.00423876 -0.00037133 -0.00104599 -0.000837258 -0.00341437 0.00160557 -0.00502301 -0.00418166 -0.00812715 -0.0161666 -0.0364141 -0.0393174 -0.0130798 -0.0266653 -0.0316197 -0.0264637 -0.013481 -0.0121356 -0.0135707 -0.0140132 -0.00951338 -0.00560533 0.000982158 0.00205592 0.00407492 0.00590164 0.00175644 0.00696274 0.0040083 -0.00358733 -0.00305644 -0.000862411 0.00269059 0.00431709 -0.00206385 -0.0193165 -0.0112695 -0.0243064 -0.0236695 0.000963156 0.016063 -0.00436507 -0.00859943 0.00357453 0.00771085 0.0034223 -0.00319984 -0.0178539 -0.0206835 -0.0124428 -0.00546473 0.0040371 0.00266149 0.00175658 0.000323176 0.00260435 0.000799039 -0.00508576 -0.0105964 0.00105194 0.0170349 -0.00880142 0.00283386 -0.00161117 -0.0121427 -0.00134467 -0.0281176 -0.0421426 -0.0119369 -0.0102401 -0.000666273 -0.0137439 -0.0405652 -0.024058 -0.017738 -0.0176033 -0.0259704 -0.0152236 -0.00790484 0.00213751 0.00152716 0.00541041 0.00309861 0.00397457 0.00224647 0.0015293 -0.00156845 0.00887522 0.00423384 0.00136061 0.0258803 0.0134062 -0.0275258 -0.00998169 -0.0173066 -0.00578664 0.0246665 0.00939269 -0.0138018 -0.0317757 -0.0458691 -0.0448071 -0.0386507 -0.0285657 -0.0314957 -0.0187708 -0.00461094 -0.00130724 0.000113 0.000913443 0.00337918 0.00145109 0.00614462 0.00704551 0.0158701 0.00642686 0.00220534 -0.00612528 0.012697 -0.0020873 -0.00905366 0.000947921 -0.00448463 0.00587931 0.0277288 0.0174066 -0.0128055 -0.023006 -0.0164746 -0.0130086 -0.02539 -0.0313517 -0.0344801 -0.0155558 -0.00526141 0.00466795 0.00390123 0.00576112 0.00686145 0.00568508 0.00786249 0.0136311 0.02477 0.0101513 -0.0101384 -0.00104592 0.0200302 -0.0100533 -0.0204662 -0.0379412 -0.0403423 -0.0491315 -0.0158505 0.0121598 -0.00990764 -0.0148566 -0.0166705 0.0133937 0.00434721 -0.0263995 -0.033902 -0.0143902 -0.00360612 -0.00159931 0.0013904 0.00618267 0.00347082 0.00474928 0.0065347 0.00233604 -0.0127885 -0.0148104 -0.00599117 0.00660249 0.00820953 -0.0231017 -0.0261065 -0.0439324 -0.0601521 -0.0565638 -0.0201153 -0.00517109 -0.00462613 0.00581122 -0.00136693 0.0181536 -0.0118649 -0.0227665 -0.0292087 -0.0120539 -0.00664835 0.000990736 0.00235647 0.00512881 0.0053722 0.00390805 0.00626934 -0.00559798 -0.0268856 -0.0241962 -0.00707491 -0.000380959 0.00274116 -0.0154237 -0.0347768 -0.0507972 -0.0728017 -0.0673402 -0.0381469 4.86525e-05 0.0231962 0.0171045 -0.0110901 -0.00118556 -0.0215143 -0.00756153 -0.0169111 -0.00866625 -0.00117109 0.00446499 0.00449649 0.00274005 0.00451968 0.00673114 0.00212032 -0.00621134 -0.022881 -0.0143739 0.00117919 0.00469106 0.0101562 0.00838328 -0.0263412 -0.043948 -0.0652236 -0.0558032 -0.0253928 0.0201217 0.0104958 -0.000655784 -0.00377626 -0.0249768 -0.0234625 -0.014449 -0.00293254 -0.0125325 -0.00243452 0.000845899 0.00203747 0.00421546 0.00241227 0.00353292 0.00323395 -0.00444394 -0.0075218 0.00761705 0.0264871 0.0306807 0.00668444 0.00496814 -0.0117471 -0.041232 -0.0603204 -0.0365647 -0.017361 -0.0116385 -0.000630009 0.00755775 0.00291302 -0.0223562 -0.0246726 0.0062471 0.000942355 -0.0104995 0.00457069 0.00165031 0.00196721 0.00576401 0.0070092 0.00503108 -0.00169234 0.000927952 -0.00594124 -0.00138159 0.0166665 0.0124011 0.00428265 0.0257054 -0.00808617 -0.0295344 -0.0437259 -0.0595572 -0.0477854 -0.0125203 0.0117048 0.0175735 -0.0163793 -0.0126361 -0.00694531 0.0110293 -0.00118038 -0.0167824 0.00417424 0.00579993 0.0049163 0.00500475 0.000688966 0.001159 -0.00186505 0.00551613 -0.00355191 0.00308203 0.00388166 -0.0134817 -0.00172144 0.0204406 0.000617962 -0.024956 -0.0601107 -0.063559 -0.0385617 -0.0053735 0.00675898 -0.0112681 -0.0139905 -0.0241433 -0.0128624 0.00280466 -0.00248556 -0.0169527 0.00360961 -0.000264506 0.00148331 0.00126464 0.0034434 0.002782 0.00249125 -0.00135588 -0.00433287 -0.0109247 -0.0109949 -0.0214979 -0.0185482 -0.00357369 -0.00756833 -0.0244047 -0.0408025 -0.048985 -0.0223256 -0.0161839 -0.0340667 -0.0167026 -0.0227231 -0.0309318 -0.00515777 0.00245308 -0.011506 -0.0151085 0.00625014 0.00146034 0.00244881 0.00383265 0.00604163 0.0057988 -0.0070327 -0.0275434 -0.0209374 -0.0198243 -0.0219294 -0.0122128 -0.0201384 -0.00241772 -0.00881584 -0.0263364 -0.0292685 -0.0436459 -0.0582762 -0.0281252 -0.0444959 -0.0338687 -0.022737 -0.00826693 -0.000106529 -0.00877953 -0.0240555 -0.0151913 -0.000542709 0.00393181 0.00523924 0.00470726 0.00445418 0.00133911 -0.0159832 -0.0274375 -0.0260127 -0.0137906 -0.0258954 -0.0135531 -0.0119309 -0.0122017 -0.0126723 -0.0271007 -0.0349257 -0.0488954 -0.0597805 -0.0319634 -0.0389239 -0.0332802 -0.00738053 0.00267528 -0.00324025 -0.0091241 -0.0273095 -0.00762849 0.00352546 -2.94284e-05 0.00150333 0.000210773 0.00189637 0.00432922 -0.0187406 -0.0293067 -0.0213226 -0.020282 -0.0272163 -0.0236694 -0.0291693 -0.0117183 -0.00566358 -0.0289759 -0.027268 -0.0332126 -0.044534 -0.00627478 -0.0335715 -0.0334879 -0.00832759 -0.00396021 -0.012235 -0.0116837 -0.0198342 0.000180715 0.00548053 0.00623352 0.00618267 0.00154567 0.00462604 0.00492923 -0.0168152 -0.0251546 -0.0311388 -0.0444451 -0.050043 -0.0390564 -0.0299293 -0.0192077 -0.0123582 -0.00794745 -0.025787 -0.0309988 -0.0265078 -0.00240398 -0.0316334 -0.0288283 -0.0103719 -0.0218367 -0.0247507 -0.0127487 -0.00497131 0.00322027 0.00589326 0.000808403 0.00604215 0.00309133 0.000913349 0.00617264 -0.00232818 -0.0268391 -0.0290835 -0.0328334 -0.0410243 -0.0262495 -0.0136911 -0.00665566 -0.0121891 -0.0148272 -0.0102163 -0.0251294 -0.0177119 -0.0258849 -0.028971 -0.0365112 -0.0259785 -0.0306888 -0.0179337 -0.0037601 -0.00195797 0.00422213 0.00525147 0.00286083 0.00618267 0.00653396 0.00105386 0.00171221 0.00101337 0.00445758 0.00110811 -0.00191431 0.00141855 -0.0016293 -0.0024335 -0.00126885 -0.00510393 -0.0125304 -0.0244533 -0.0337085 -0.0101249 -0.0155701 -0.0158395 -0.0320709 -0.0129467 -0.0147846 -0.00187647 0.00541589 0.00386691 0.00304573 0.00465534 0.0043926 0.00421546 0.00548009 0.000140515 0.00310622 0.00741316 0.00729831 0.0100489 0.0102981 0.0139872 0.0106639 -0.0242231 -0.0158388 -0.0167303 -0.0203619 -0.0237644 -0.0184397 -0.00832197 0.00128745 0.00486699 -0.010988 -0.000741102 0.000615602 0.00749124 0.00651486 0.0111694 0.00498003 0.00252037 0.00362524 0.00288056 0.00028103 0.000702576 0.00351288 0.00379642 0.00966081 0.000584334 -0.00213278 -0.00201531 -0.00473322 -0.000765546 0.00204925 0.000535088 -0.00249558 0.00682402 0.0175862 0.0127584 0.018825 0.0237596 0.0153759 0.0144404 0.0164851 0.00758483 0.00924218 0.00368969 0.00404705 0.00426857 0.00347857 0.00140515 0.00302108 0.00295082 0.0059719 0.00156665 0.00417954 0.000986356 -0.00276468 -0.00347901 -0.00470102 0.00222128 0.0111316 0.00336121 0.00335752 0.0116713 0.0202053 0.0186488 0.0134911 0.014545 0.0222557 0.017603 0.0117759 0.00867231 0.00536378 0.00347849 0.00555035 0.00238876 0.000702576 0.004637 0.00590164 0.0028103 0.0059719 0.00330211 0.00372365 0.00491859 0.000777439 0.000742092 0.000702234 0.0078472 0.00844017 0.00502779 0.00296601 0.00652738 0.0102978 0.00518355 0.00248078 0.00630757 0.00643776 0.00233306 0.00256492 0.00671321 0.00616464 0.00442623 0.00168618 0.00407494 0.00288056 0.00351288 
0.00238876 0.00217799 0.00632319 0.00147541 0.0028103 0.00337237 0.00435597 0.00337237 0.00309133 0.00245902 0.00126464 0.00252927 0.00608606 1.70682e-06 0.0034918 0.000130852 0.00337237 0.00161593 0.00112412 0.00519906 0.0036534 0.00533958 0.00562061 0.00295082 0.00168618 0.00548009 0.00449649 0.00028103 0.00140515 0.0069555 0.00498829 0.00386417 0.00189696 0.00568559 0.000925213 0.000912922 0.00128523 0.00556255 0.00249354 0.00325735 -0.000261737 0.00360138 0.00236865 0.00250157 -0.000764219 0.00129319 0.00380669 0.0037661 0.000259762 0.00303308 0.00203892 0.00665344 0.00583138 0.000210773 0.00618267 0.00576112 0.0041452 0.00175644 0.00344262 0.004637 0.00273999 0.00131442 0.00161224 8.77765e-06 0.00146258 -0.000895153 -0.0137956 0.00220058 -0.000251 0.000243695 0.00176438 -1.03281e-05 0.00395843 0.00324438 0.00150328 0.00158559 0.00430183 0.00647716 0.00306932 0.00428648 0.00489338 0.00625293 0.00126464 0.00407494 0.00386417 0.00526932 0.00259953 0.000778307 0.00604652 0.00232342 0.000508434 0.00214295 -0.00127213 -0.0041196 -0.023521 -0.012266 -0.00328815 -0.0110485 -0.00453451 -0.00341445 -0.00642422 -0.0107688 -0.00760164 -0.00230707 -0.000459935 0.0070693 0.00553967 -0.00022822 0.0034663 0.00290982 0.00302108 0.00252927 0.00639344 0.00372365 0.0028103 0.003822 0.00118747 0.00516009 0.000431062 -0.0034256 -0.00484419 -0.0186755 -0.0341478 -0.0173076 -0.0145687 -0.0331237 -0.0537076 -0.0605289 -0.0528575 -0.0238029 -0.026965 -0.0170309 -0.00340699 0.00804742 0.00845834 0.00503931 0.0021687 0.00039805 0.00173133 0.00112412 0.00351288 0.00168618 0.00565996 0.00520859 0.00602249 0.000603223 0.000225041 -0.00172414 -0.00651719 -0.0202598 -0.0294403 -0.0306441 -0.0443389 -0.0553914 -0.075139 -0.0520458 -0.0634726 -0.0363865 -0.0248697 -0.026831 -0.0242601 -0.00856249 0.00356522 0.00816135 0.0092538 0.00737256 0.00444278 0.00189702 0.00526932 0.00590164 0.00262285 0.000455148 -0.0020442 0.00430849 0.000597505 0.00473502 0.000155134 -0.035589 -0.0597408 -0.0242257 -0.0195564 -0.0424745 -0.0280153 -0.0303265 -0.0338797 -0.0255761 -0.0206086 -0.011076 -0.00999933 -0.00757477 0.000522079 0.0109583 0.00792766 0.00624939 0.00178409 0.00201842 0.00533966 7.4328e-05 0.000612475 0.0038079 -0.00155721 -0.00170739 0.000874974 -0.000484251 -0.020182 -0.0314257 -0.0298448 0.00137961 0.0119315 -0.0195901 -0.0286805 -0.00352329 -0.0273632 -0.0116603 -0.0349715 -0.0420589 0.00098397 0.000174805 0.00154883 0.00086103 0.0043452 0.00100813 0.0041012 0.00709061 0.00295114 0.00181518 0.00209087 0.00400165 0.00512173 0.00485074 0.000415002 -0.0309687 -0.0205753 -0.0135515 -0.0229947 -0.00766137 -0.0129226 -0.0188212 -0.0208429 0.00637806 -0.0179677 -0.019082 -0.019429 -0.0406922 -0.0220606 -0.0168174 -0.00193598 -0.00269674 0.00225087 0.00197496 0.00366449 0.00415367 0.000843144 0.00288138 0.00402509 -0.00111171 0.00192485 0.00507817 -0.031064 -0.0351715 -0.0174533 -0.0225944 -0.0448366 -0.0107712 -0.00257911 -0.023795 -0.0240131 0.0125149 0.0186818 -0.0131184 -0.0072183 -0.0081539 -0.0292779 -0.0467758 -0.0432798 -0.019961 -0.0122537 -0.0035436 0.0043132 0.00608244 0.00519906 0.00274357 0.00564288 -0.00246595 -0.0044232 -0.0095064 -0.0407824 -0.0175032 -0.0120258 -0.0444144 -0.0386433 0.00858495 -0.0183798 -0.0590438 -0.0680326 -0.00301345 0.0355228 0.00453789 -0.0156477 -0.0282769 -0.026262 -0.0353177 -0.0571427 -0.051794 -0.010594 -0.00469547 0.00134579 0.00628964 0.00133489 0.00190435 0.000386109 -0.000254145 -0.00110131 -0.0390948 -0.029462 0.0204242 -0.00595689 -0.0348945 -0.0116761 0.0304001 0.00967003 -0.0733066 -0.076324 0.00143064 0.0329586 0.00995046 -0.0304051 -0.0382053 -0.0249136 -0.014319 -0.0500717 -0.0565873 -0.0245044 -0.00216336 0.00445647 0.00256106 0.000421546 0.00313508 0.00587693 0.0044487 -0.000280557 -0.0449628 -0.0210168 0.0164241 0.00669273 -0.00888274 -0.00601333 0.031448 -0.00135202 -0.0605427 -0.0514917 0.00809174 0.0313952 0.00657297 -0.0267548 -0.0420399 -0.0323122 -0.00751326 -0.00309888 -0.0507839 -0.0356195 -0.00700687 -0.00458491 0.000491803 0.00653396 0.00655962 0.000780487 0.00382901 0.00733476 -0.0246368 -0.00355511 0.0160788 -0.00501446 0.000220918 -0.00980101 0.0151056 -0.00142316 -0.0543355 -0.0296143 -0.0101836 0.0180036 0.0300752 -0.0016918 -0.0295638 -0.0266996 0.00536681 -0.00946952 -0.0363251 -0.0540012 -0.0103807 -0.00349914 0.00028103 0.00379391 0.000687447 0.00694665 0.00201117 0.00708372 -0.0110126 -0.00289693 0.0248859 0.00329449 -0.00850939 -0.00291282 0.0164798 -0.0129502 -0.0468946 -0.0336996 -0.0229169 0.0306496 0.0294049 0.00420872 -0.024089 -0.0196082 0.000415431 0.000338932 -0.0231556 -0.048069 0.000590069 0.00252816 0.0041452 0.00077504 0.00214344 0.000884326 0.00164773 0.00639468 -0.0117008 -0.00396738 0.0113009 -0.00671581 -0.00535681 -0.00781487 -0.0229907 -0.0275388 -0.0498113 -0.037454 -0.009964 0.0335515 0.0312458 0.0104935 -0.00761079 -0.000918087 0.024455 0.0211976 -0.00946424 -0.0405639 0.00170495 0.00395407 0.00681847 0.000855688 0.00555474 0.000358904 0.00279436 0.00438741 -0.0042356 0.00445407 0.0186119 0.00308869 -0.0157474 -0.0163561 -0.032376 -0.0246072 -0.0212217 0.00786182 0.033479 0.0532072 0.0272647 0.00904944 -0.000653077 0.0148645 0.0178238 0.0110236 -0.00698458 -0.041544 -0.00326252 -0.00181242 0.00496701 0.00674473 0.00580778 -0.000467294 0.00149795 -0.0010308 0.00270359 -0.00909802 -0.00968178 0.000424824 -0.0284169 -0.0437799 -0.0458683 -0.0309786 0.00946701 0.0381386 0.0379958 0.0416057 -0.00324027 -0.00473951 -0.0103945 -0.00305009 -0.00566486 0.00287037 -0.0185812 -0.034231 -0.00320341 0.00279441 0.00334559 0.00192363 0.00421352 0.00549469 -0.00346496 -0.0014378 -0.00451469 -0.0242745 -0.0305035 -0.0237492 -0.0240007 -0.0425013 -0.0222463 -0.00551611 0.00495913 0.0197777 0.00915535 0.00577592 -0.0199712 -0.0273669 -0.0146646 -0.0154181 -0.0276093 -0.0192464 -0.0440461 -0.0315903 -0.000976358 0.00507031 0.00325038 0.0018267 0.00698352 0.0041948 -0.005735 -0.004192 -0.0154418 -0.0166195 -0.0577404 -0.073494 -0.0570116 -0.0278051 -0.0086588 -0.00417677 0.00232009 -0.00173151 -0.0324422 -0.028666 -0.0426901 -0.042446 -0.0299679 -0.0315231 -0.0363234 -0.0215345 -0.0496469 -0.0188377 0.000121343 0.00260135 0.00141216 0.00660422 0.00315911 0.00201531 -0.0031824 -0.0094296 -0.0179077 -0.0311511 -0.0539118 -0.0808972 -0.0756804 -0.047125 -0.00794817 -0.0145436 -0.0165555 -0.0227349 -0.039717 -0.0148156 -0.0388293 -0.0245388 -0.0334436 -0.0386985 -0.0336914 -0.0301565 -0.035749 0.000484851 0.000444196 0.00255105 0.00266979 0.00196721 0.00286608 0.000565365 0.00126065 -0.00852908 -0.0177745 -0.0376026 -0.0462883 -0.0285383 -0.033123 -0.0427943 -0.0452794 -0.0340859 -0.0331492 -0.0428572 -0.0408046 -0.0282629 -0.0440747 -0.0299129 -0.0310967 -0.0564442 -0.0513639 -0.022884 0.00154392 0.00308761 0.000533314 0.00102773 0.00590164 0.00660422 0.00442623 0.00281947 -0.00168217 -0.00138446 -0.00945808 -0.0278268 -0.0337092 -0.0112388 -0.00519744 -0.0121131 -0.0502175 -0.0576935 -0.0502653 -0.0640807 -0.0736726 -0.0571175 -0.0491417 -0.0431071 -0.0454947 -0.0433515 -0.0344802 -0.00329421 0.0062538 0.00845746 0.00311974 0.0060694 0.00498829 0.00505855 0.00505855 0.00593873 0.00167261 0.00684654 0.00219738 -0.00379235 0.000271485 0.00308386 -0.00792279 -0.00401268 -0.0294952 -0.0413916 -0.0421932 -0.0443922 -0.0431236 -0.0297019 -0.0295177 -0.0294807 -0.0232791 -0.00780697 -0.012695 0.00293185 0.0075337 0.00439752 0.00288769 0.001935 0.00196721 0.00252927 0.00112412 0.00255279 0.00431892 0.00524279 0.0110641 0.00704847 0.011348 0.0123312 0.00179017 -0.00746223 -0.0174183 -0.042007 -0.024252 -0.0177194 -0.0166589 -0.00918817 -0.014427 -0.00789887 -0.0106098 -0.00119852 -0.00278656 0.00823692 0.00932441 0.00542757 0.00232248 0.00623723 0.000843091 0.00428571 0.00133489 0.00548009 0.000960469 0.0119482 0.0107893 0.00892677 0.0087473 0.00864219 0.0109211 -0.00312158 -0.00783492 -0.00564435 0.0126741 0.0163565 0.00944362 -0.00267234 -0.0152599 0.00525226 -0.00200452 3.17529e-05 -0.00288334 0.00656692 0.00929697 0.00286979 0.0048653 0.00418121 0.00168618 0.000140515 0.00252927 0.00428571 0.00060792 0.0037781 0.00290848 0.00219293 0.00685641 0.00823537 0.00557048 -0.00624032 -0.0188119 -0.00703751 0.00561973 0.00669546 0.0138392 0.00301445 -0.0115632 0.00125535 0.00354099 0.00350215 -0.00883186 -0.00267631 0.00705551 0.00674473 0.000562061 0.00154567 0.00688525 0.00309133 0.00618267 0.00632319 0.0064637 0.00175644 0.000632664 0.00435438 0.00498752 0.00591132 0.00598256 0.00519107 0.00585719 0.000854128 0.00430447 0.00688809 0.00128112 0.000350592 0.00242347 0.00591444 0.00260164 0.00543506 -0.00793472 0.000442907 0.0018267 0.00435597 0.000140515 0.00590164 0.00611241 
0.00245902 0.00351288 0.00112412 0.00667447 0.00435597 0.000632319 0.00421546 0.00337237 0.00625293 0.00147541 0.0028103 0.0064637 0.00577479 0.0018349 0.00369949 0.000209766 0.00681499 0.00393443 0.00512881 0.00456674 0.0036534 0.00323185 0.00175644 0.00519906 0.00161593 0.00576112 0.00583138 0.0028103 0.000562061 0.00386417 0.0023185 0.00238876 0.00449649 0.00196789 0.00264187 0.00281352 0.00667096 0.00634564 0.00688066 0.00118598 0.00076975 0.00539342 0.0027417 0.0019655 0.00341294 0.00033427 0.000908518 0.00377287 0.00191112 9.61471e-05 0.00230219 0.00267127 0.00140515 0.000772834 0.00393443 0.00133489 0.0028103 0.00196721 0.0059719 0.00189696 0.00112434 0.0052758 0.00513486 0.0064912 0.00653947 0.00435921 0.00883574 0.00352618 0.00396401 0.00302438 0.00339701 0.00172947 0.00305496 0.00587247 0.00644093 0.00628133 0.00450798 0.00563985 0.00272034 0.000182495 0.00585054 0.00330211 0.00105386 0.0028103 0.00533958 0.00688525 0.00477752 0.00534846 0.00520623 0.00161227 -0.00190152 -0.0174548 -0.0146657 0.0036507 0.0101571 0.00883878 0.00682643 -0.00172434 -0.0116764 -0.00552956 0.0044585 0.0130017 0.0170168 0.0110574 0.0117304 0.00731983 0.0060381 0.0059715 0.00517164 0.00221586 0.00421546 0.00189696 0.000913349 0.00548009 0.00400468 0.00132075 0.000568973 0.00262878 -0.0128129 -0.0218874 -0.0187241 -0.0125817 -0.00775231 -0.0106 -0.0190252 -0.023529 -0.0190136 -0.0326628 -0.0360933 -0.0462556 -0.0568722 -0.0354947 -0.0166454 -0.00864523 -0.00851353 -0.0160013 0.00477276 0.00440542 0.00207032 0.00358314 0.00379391 0.0036534 0.000561489 0.00677842 0.0058458 0.0118793 0.00146071 0.0115843 -0.0269876 -0.0684311 -0.0630299 -0.0800436 -0.113301 -0.10367 -0.117798 -0.0553527 -0.0628032 -0.0563286 -0.051305 -0.0470735 -0.0258624 -0.0369098 -0.0323576 -0.0207072 0.00565211 0.00690556 0.000782736 0.00442624 0.00133489 0.00569087 0.000723891 -0.00230339 0.00123667 0.0254216 0.00657194 -0.0115716 -0.055989 -0.0497137 -0.0449721 0.00492354 -0.034046 -0.0437418 -0.0274487 0.00146091 -0.000822459 0.0215068 -0.00214509 -0.0255813 -0.0394128 -0.0331922 -0.0569923 -0.015889 0.00917017 0.0106099 0.00643566 0.00152303 0.0044965 0.00241711 0.00480501 -7.71811e-05 0.0017812 0.00976411 0.00744473 0.0035614 -0.025056 0.000329927 0.0362545 0.0668909 0.0715639 0.0179985 -0.0186142 -0.0208405 0.00868536 0.00979879 -0.0296046 -0.0484385 -0.0446636 -0.0461374 -0.0530411 -0.0195137 -0.0019989 0.0102919 0.00320941 0.00518353 0.00098367 0.00312272 0.00492267 -0.00189559 -0.0190231 0.0344873 0.0675396 0.00613501 0.0197003 0.0150824 0.0459532 0.021499 0.0486901 0.0127025 -0.0404292 -0.0834074 -0.0882832 -0.0821194 -0.0989578 -0.0888091 -0.063286 -0.0576322 -0.0612162 -0.0339859 -0.00521454 0.00679037 0.000492973 0.00100554 0.00512882 0.000935733 0.00696186 -0.0100173 0.0077581 0.0846054 0.0806809 0.0198766 -0.0108934 -0.0307905 -0.104484 -0.0735542 -0.0300989 -0.0351686 -0.0752292 -0.106782 -0.107658 -0.109684 -0.139465 -0.145126 -0.06382 -0.0620164 -0.0510995 -0.0400032 -0.000558928 0.0147809 0.00373453 0.00368177 0.00632319 0.00258361 0.00521741 -0.00735411 0.0339571 0.104181 0.112448 0.0109611 -0.0356072 -0.0828731 -0.0788709 -0.0597773 -0.0526496 -0.077349 -0.067018 -0.0626717 -0.048838 -0.0618347 -0.0992814 -0.113446 -0.048815 -0.0384766 -0.0248073 -0.0226682 -0.00267376 0.00953688 0.00243652 0.000849934 0.00386417 0.00309045 0.00044858 -0.00376865 0.0304781 0.126258 0.105532 0.0275545 -0.064784 -0.0442143 -0.0379156 -0.0380669 -0.0437565 -0.0342885 0.000527373 0.047083 0.0638344 0.0582852 0.0361071 -0.0255305 0.0153415 -0.00694803 -0.0281814 0.003242 -0.0092362 0.00620567 0.00632917 0.00359366 0.00112412 0.00153298 0.000566296 -0.00155458 0.0496152 0.13276 0.108062 -0.0230024 -0.106624 -0.041623 0.0238633 -0.0016188 0.0126754 0.0121527 0.0417604 0.0856879 0.0741326 0.0849365 0.0725952 0.0446402 0.00585327 -0.0141709 -0.0113416 0.0262184 -0.019569 0.00457081 0.000421612 0.00632319 0.00562061 0.00343445 0.000905707 0.00170406 0.0590171 0.105793 0.0999823 -0.0441428 -0.128899 -0.0644872 0.0228231 0.0205792 0.0180049 -0.0225646 -0.00375932 -0.0101515 -0.0258151 -0.0120134 0.0604546 0.0916124 0.00773133 -0.00161293 -0.00830899 0.039997 0.0155914 0.00383323 0.00409597 0.0059719 0.0028103 0.00599464 0.00442104 0.00497012 0.0171078 0.0659293 0.0693787 -0.0415812 -0.0724531 -0.0156993 0.00456925 -0.031999 -0.0822533 -0.0802979 -0.0930943 -0.111458 -0.112851 -0.0775741 -0.0010883 0.041058 0.000967404 -0.0194831 0.0261723 0.0536277 0.0561095 -0.000200099 -0.000154139 0.0018267 0.00217789 0.000423139 0.000128577 0.00250374 0.0142117 0.0108374 0.0492664 -0.00379781 -0.0150912 0.0233762 0.0413152 0.0367978 0.0342916 -0.0226669 -0.0814771 -0.111489 -0.0967434 -0.107933 -0.0608846 -0.00976237 -0.0068343 -0.0312596 0.00318481 0.0560749 0.0613902 0.00876826 0.00340247 0.00266805 0.00414462 0.00227522 0.0016843 0.00542167 0.0073068 -0.0097765 0.00843656 -0.0687126 -0.029819 0.0261744 0.0298313 0.0442293 0.0214796 -0.00730393 -0.05005 -0.0511524 -0.033024 -0.040779 -0.0495352 -0.0307993 -0.00906221 -0.0217091 -0.00276351 0.0796759 0.0762568 0.0163328 0.00543373 0.00206003 0.00154567 0.00236761 0.00636033 0.00802331 -0.00256429 -0.0451558 -0.0455587 -0.0483264 -0.00923231 -0.00547024 -0.0129403 -0.00321906 -0.0160179 -0.0106439 -0.0434166 -0.0412458 -0.0457503 -0.039834 -0.0312962 -0.0215543 -0.0281147 -0.0318736 -0.024145 0.0939634 0.0979172 0.0115958 0.00199432 0.00216832 0.00285141 0.00274277 0.00152779 0.0104982 -0.00117147 -0.0565414 -0.0441228 -0.0419588 -0.0486024 -0.0690718 -0.0535803 -0.0486691 -0.0736919 -0.0718879 -0.0856466 -0.0765544 -0.0578433 -0.056119 -0.0529582 -0.0361638 0.00201172 -0.0333888 -0.0321426 0.0917287 0.0798259 0.00909639 0.0012947 0.00407408 0.00245902 0.000484986 0.00773881 0.0108305 -0.00597523 -0.0541613 -0.0517069 -0.0585867 -0.0338872 -0.0659599 -0.0739795 -0.055629 -0.0860638 -0.0861597 -0.0956088 -0.0883614 -0.0715726 -0.0381921 -0.0468025 -0.0570081 -0.00599527 -0.0591581 0.0358665 0.0827041 0.0532247 5.87117e-05 0.000545772 0.00279069 0.00175644 0.0013384 0.000293917 0.00402721 0.0135808 -0.0390189 -0.0732068 -0.0563082 -0.0317205 -0.033875 -0.0353309 -0.0187677 -0.0207079 -0.036712 -0.052804 -0.0564137 -0.0305097 -0.0216518 -0.0278631 -0.0680441 -0.0731457 -0.0473723 0.102702 0.0855329 0.0298275 -0.000369947 0.00138851 0.00484778 0.00688525 0.00668334 0.00617004 0.00320526 0.0119971 -0.00309162 -0.0592858 -0.0670294 -0.0343566 -0.0443173 -0.0388498 -0.00749351 0.0187176 -0.0149387 -0.050501 -0.0605567 -0.0407174 -0.0121278 -1.84463e-05 -0.017427 -0.0308303 0.015434 0.100857 0.0448928 0.0214898 0.00286657 0.00319351 0.0018267 0.00259953 0.00526932 0.00494015 0.00714811 0.0121078 0.00336439 -0.00178028 -0.0296638 -0.0280684 -0.0109152 -0.0349037 -0.0242563 -0.0289596 -0.0168575 -0.00647661 -0.0252108 -0.0255924 -0.0068109 0.0271577 -0.0130904 -0.0238624 -0.00161883 0.00504752 -0.00582037 0.0260568 0.0108543 0.00201772 0.00189696 0.0036534 0.00147541 0.00192628 0.00322071 0.013759 0.0118725 0.0115466 0.0127005 0.0118218 0.0096136 0.0182365 -0.00308754 -0.039733 -0.0293787 -0.0302105 -0.0499261 -0.0410622 -0.0356908 -0.0443134 -0.0419839 -0.0146902 -0.0183811 -0.00346765 0.0223452 0.0187904 0.00420193 0.00432589 0.00238876 0.00484778 0.00028103 0.00616385 0.0026344 0.00625842 0.0108288 0.0160796 0.0206577 0.0208463 0.0209401 0.027004 0.0360413 0.000133759 -0.00580665 -0.024048 -0.0332106 -0.0324357 -0.0128973 -0.01295 -0.00479932 0.0139571 0.00356002 0.00993871 0.00844059 0.00701071 0.0046497 0.00157294 0.00161593 0.00330211 0.00548009 0.00660422 0.00441501 0.00397229 0.00858119 0.00888114 0.0133331 0.0239495 0.0171992 0.0156178 0.021907 0.0038586 0.00437283 0.0114221 0.0108269 0.00842778 0.00867696 0.0255882 0.0443281 0.0188997 0.000824051 0.00512296 0.00475402 0.00662567 0.00367762 0.000942329 0.00288056 0.004637 0.00112412 0.00161593 0.0019285 0.00334478 0.00526132 0.00117617 0.00297685 0.00311114 0.00345215 0.00371304 0.00641559 0.00853346 0.0124639 0.00715526 0.00157141 0.00324601 0.00187459 -0.000284556 0.0141852 0.0074433 -0.00128607 -0.00154433 0.00142269 0.004637 0.00512881 0.00196721 0.00442623 0.00245902 0.00295082 0.004637 0.00519906 0.0069555 0.00344269 0.00259947 0.00477643 0.00653179 0.0062506 0.00123714 0.00616876 0.00356926 0.00017315 0.00329737 0.00103746 0.0033863 0.00549315 0.00544787 0.00132597 0.00570776 -0.00433545 -0.00399973 0.00611241 0.00477752 0.00569087 0.00674473 0.004637 
0.00667447 0.000702576 0.00266979 0.00105386 0.00288056 0.00266979 0.00407494 0.00611241 0.00660422 0.00505855 0.00477752 0.00210773 0.00288733 0.00555596 0.00527491 0.00105995 0.00681499 0.00667447 0.00351288 0.00583138 0.000772834 0.0064637 0.0036534 0.000983607 0.00330211 0.00625293 0.00119438 0.00674473 0.00681499 0.000843091 0.00105386 0.00674473 0.000421546 0.0041467 0.00503732 0.000290669 0.00420444 0.00366822 0.00326134 0.00496534 0.00432317 0.00276279 0.00467546 0.00691256 0.00350747 0.0048988 0.00624657 0.00244994 0.00084428 0.00380494 0.00618871 0.0068789 0.00491803 0.00358314 0.00449649 0.000421546 0.00119438 0.00484778 0.00126464 0.00379391 0.00618277 0.00211511 0.00652499 0.00329365 0.00113441 0.0057743 0.00636855 0.00220263 0.00697255 0.00482406 0.00749303 0.0037607 0.00340116 0.00187985 0.00220459 0.00570952 0.00036822 0.00406366 0.00440732 0.00407126 0.00396964 0.00309133 0.00449649 0.00491803 0.00168618 0.00302108 0.00533958 0.00680553 0.00252174 0.00593722 0.0051169 0.00629653 0.003375 0.00998151 0.00798048 0.0142015 0.0220535 0.0179383 0.0180482 0.00468675 0.00876237 0.0110856 0.00272762 0.00415558 0.0015973 0.00248149 -0.001419 -0.00100828 0.00537436 0.00522407 0.00295082 0.0041452 0.00372365 0.00639344 0.0064637 0.00636913 0.00520502 0.00827973 0.00768611 0.011405 0.0145753 0.013071 0.0229943 0.0317624 0.0355191 0.0143444 0.0143619 0.00589492 0.00638394 -0.00784583 -0.0106704 -0.00112543 -0.00619002 -0.00558692 -0.0107993 -0.00314494 -0.000855744 0.0059972 0.00574567 0.00512881 0.00435597 0.0059719 0.00247662 0.00419646 0.00633987 0.0099695 0.016179 0.0201689 0.0145375 0.0146869 0.016826 0.0177575 0.0130318 0.00257221 -0.0191775 -0.00481264 0.00165521 -0.00144148 -0.00853478 -0.0131159 -0.00750478 -0.00993566 -0.00751971 -0.00681744 0.000614759 0.00232906 0.00259431 0.00105386 0.00330211 0.000210773 0.00308681 0.000970037 -0.00185588 0.00522507 0.00991282 0.00133992 0.00361598 -0.00221047 0.00179084 -0.00819619 -0.00358392 -0.0240299 -0.0243608 0.00528131 -0.00301358 0.00177549 -0.000549457 -0.00417843 0.00250945 0.0119765 0.00132085 -0.010311 -0.00279821 0.00499768 0.00474378 0.00316976 0.0020376 0.00278032 0.00120483 0.00199789 0.000927716 0.0022045 -0.00675179 0.000907262 0.00409497 0.00160145 0.000804896 -0.0109986 -0.0118832 -0.0440489 -0.0377823 -0.0146126 -0.0172741 -0.00495469 0.00393871 0.00139159 0.00416375 0.00772025 0.00879606 0.00090716 -0.00166558 0.00665929 0.00348831 0.00456912 0.00379445 0.00203647 0.00476089 0.00631594 0.00375988 -0.00878652 -0.00643509 0.012422 0.0197837 0.021326 0.0119743 0.0176165 0.0137605 -0.0300327 -0.034588 -0.00502216 -0.00306828 0.00125465 0.00304635 -0.00485652 -0.000715419 -0.00316189 0.00343858 -0.000578181 -0.00512918 0.00699263 0.00392477 0.00574114 0.00590173 0.00639131 0.00912754 0.00511313 -0.00746485 -0.00671209 -0.00294028 0.0134754 0.00707462 -0.0017911 -0.00881387 -0.00803616 -0.014019 -0.0316043 -0.0101107 0.0255093 0.0249666 0.0122407 -7.6036e-05 -0.021788 -0.0164602 0.00212805 0.00646472 0.00762435 0.00581667 0.00161111 0.00501631 -0.000243445 7.02576e-05 0.00423851 0.00542231 0.0129367 -0.00730518 -0.01647 -0.000324195 -0.00639064 -0.015402 -0.023982 -0.0402422 -0.0410109 -0.0380032 -0.0314106 -0.0149267 0.00549123 0.0214196 0.0217339 0.00242114 -0.0258624 -0.0187554 -0.0183276 0.00817415 0.00366608 0.0011814 0.00316882 0.0017304 0.00178416 0.00435597 0.00424243 0.00351793 0.00976979 -0.0058241 -0.0209974 -0.0139922 -0.0219346 -0.0313945 -0.0284864 -0.0383004 -0.0273375 -0.0257068 -0.0319296 -0.00798542 -0.0107454 -0.00651659 -0.00508947 -0.00511865 -0.015414 -0.0274858 -0.0325709 -0.0193045 -0.0011095 0.00249927 0.00799492 0.00446728 0.00382485 0.00660422 0.001496 0.00271452 0.00505555 -0.0107446 -0.0203889 -0.0259037 -0.0338965 -0.0326905 -0.0280348 -0.0357334 -0.0297723 -0.0152668 -0.0222527 -0.0184261 -0.0142735 -0.0107442 -0.0119127 -0.0148231 -0.0247714 -0.0209378 -0.0308144 -0.0271561 -0.0111347 0.000455436 0.00370985 0.00696063 0.00632319 0.00252927 0.00331529 0.00217978 0.00260763 -0.0125482 -0.0172437 -0.0336717 -0.0449022 -0.0351016 -0.0298038 -0.0279346 -0.025482 -0.0284875 -0.0269652 -0.0250662 -0.0266484 -0.0117011 -0.0101736 -0.0142309 -0.0173229 -0.0140641 -0.0230516 -0.0310498 -0.0163605 0.00583616 0.00483132 0.00579847 0.00477752 0.00498829 0.00567957 0.00501172 0.00518373 -0.0125434 -0.01909 -0.0295422 -0.0330332 -0.0243431 -0.0165923 -0.0354709 -0.0400223 -0.0353184 -0.0311788 -0.0227994 -0.0162143 -0.00857523 -0.0191135 -0.00861648 -0.0119936 -0.00881644 -0.00184226 -0.0244494 -0.00928543 0.0103667 0.00473025 0.00541294 0.00653396 0.00576226 0.00289461 0.00692663 0.00658162 -0.00250574 -0.0187406 -0.0166631 -0.0217457 -0.029267 -0.0232436 -0.0256162 -0.0214028 -0.00861023 -0.0161599 -0.0215897 -0.0286976 -0.0184886 -0.0074854 -0.00582337 -0.00702493 0.000181711 0.00925274 -0.00214791 -0.00948706 0.0125194 0.00581972 0.00530025 0.00365173 0.005065 0.00160149 0.00511979 0.00710715 0.00922641 -0.00548375 -0.0231822 -0.0133552 -0.0286187 -0.0148235 -0.017967 -0.0105321 0.00558799 0.00486742 -0.0253849 -0.0336182 -0.0127949 -0.000522608 0.00482514 0.0107205 0.00839952 0.0188518 0.00685103 -0.00503824 0.00740793 0.00898138 0.00748928 0.00235915 0.00196721 0.000413787 0.00793288 0.00694142 0.0152246 0.0125736 -0.0223956 -0.0195892 -0.0194269 -0.0301678 -0.0269456 -0.0183316 0.00412816 0.00857036 -0.0347236 -0.0111089 0.00125063 0.00886269 0.0129256 0.00777443 0.00952231 0.00897105 0.00157553 -0.00254476 0.0121458 0.00780364 0.00598421 0.00502318 0.000831656 0.0063953 0.00122356 0.00947653 0.0213071 0.0201863 -0.0122595 -0.0294525 -0.0145344 -0.0177325 -0.0150942 -0.0142319 0.000777804 -0.00878574 -0.0175003 -0.00455721 0.00600116 0.0101101 0.00514338 0.00582675 0.000592617 0.00496986 0.00601298 0.00340012 0.00400926 0.00781214 0.00115228 0.00034817 0.00105386 0.00427349 0.00372679 0.0106309 0.0201895 0.015166 0.00810318 -0.00468255 -0.00921416 -0.00399307 -0.0142059 -0.0101651 -0.00168993 0.00607941 -0.0114029 -0.00670379 -0.0108885 0.00535813 -0.00161616 -0.02061 -0.00947028 0.00669853 0.00171631 0.00607071 0.0066047 0.00556063 0.00486833 0.000752242 0.000913349 0.0062676 0.0039667 0.0133583 0.0215991 0.00773361 0.0080289 0.00864717 -0.00176258 -0.00773173 -0.0104715 -0.00302948 -0.00360925 0.00655 -0.00539769 -0.0167628 -0.00886291 -0.0236299 -0.0170357 -0.0148577 -0.000457303 -0.00533005 -0.00424911 0.00538484 0.00126144 0.00479391 0.00468171 0.0064637 0.00477752 0.00127116 0.00366117 0.00805362 0.0079295 0.00356636 0.00302396 0.00946505 0.00680891 -0.00773911 -0.0118865 0.00152949 -0.000832554 -0.000640456 -0.0122397 -0.0339549 -0.00861844 -0.0101656 -0.0107921 -0.00665462 -0.00594529 -0.0102727 0.000397291 0.0014457 0.000256354 0.00636679 0.00498459 0.0028103 0.0069555 0.00449649 0.00152318 0.00323426 0.00491174 0.00435408 0.00950543 0.0149629 0.00714492 0.00134908 -0.0118609 0.00724895 0.00904951 -0.0043901 -0.0121994 -0.0103788 -0.0117284 -0.00503815 -0.00237615 -0.000699263 -0.00540039 -0.00944417 -0.00362619 5.24323e-05 -0.000355754 0.00349426 0.00526259 0.00119438 0.00569087 0.0059719 0.00321402 0.00713361 0.00625782 0.00669127 0.0177504 0.021565 0.00764445 0.0103657 0.0119848 0.0104852 0.00453079 0.00766634 -0.0144507 -0.0133838 -0.00544756 -0.0062571 -0.00344968 0.00158652 -0.00802619 -0.0137031 -0.00513625 -0.00242619 0.00378134 0.0045881 0.00441579 0.000351288 0.00154567 0.00590164 0.00412403 0.0076582 0.00865131 0.0152491 0.0235968 0.0186947 0.01462 0.00871829 -0.00342751 -0.000654161 0.012102 0.0286083 0.00859153 -0.00889867 -0.00487124 0.000389455 -0.010065 -0.0058844 -0.00431354 -0.00667041 -0.00566555 0.00016161 0.00558701 0.00312897 0.00490992 0.00309133 0.00119438 0.0064637 0.00316159 0.000356724 0.00500823 0.00415628 0.00763141 0.0100372 0.00568402 0.00759716 0.00227212 0.00510214 0.00782421 0.0188477 0.0112697 0.0113105 0.00585691 0.00162987 -0.00898692 0.001669 0.0025332 -0.001986 0.00205694 0.00105196 0.00240816 0.00514465 0.0043737 0.00210773 0.00105386 0.00449649 0.00442623 0.000708011 0.00183718 0.000730779 0.00102019 -0.00224512 3.60646e-06 0.00594932 0.00102483 0.00566129 -0.00197448 0.0013247 0.0049881 0.00302251 0.0102057 0.000583774 0.000369028 0.00333408 4.50694e-05 0.00435049 0.000715115 0.0015202 0.00316159 0.000772834 0.00421546 0.00674473 0.00323185 0.00274005 0.00681499 0.00203747 0.00126464 0.00604267 0.00113475 0.000850142 0.00328338 0.00145667 0.000389311 0.000436425 0.00747983 0.00769941 0.000245767 0.00312593 0.00259106 0.00146504 0.00258997 0.00235196 0.00119634 0.00654794 0.00585854 0.00611241 0.00344262 0.00252927 0.00562061 0.0036534 
0.00519906 0.00653396 0.000772834 0.00105386 0.00498829 0.00175644 0.00604215 0.00674473 0.00316159 0.00386417 0.00351288 0.00133489 0.00353869 0.00394312 0.00539411 0.00218026 0.00625293 7.02576e-05 0.00512881 0.000351288 0.00203747 0.00140515 0.00688525 0.00470726 0.0018267 0.000562061 0.00351288 0.00203747 0.00526932 0.00590164 0.00470726 0.00386417 0.00400468 0.000769377 0.00337844 0.00139176 0.00202481 0.00358759 0.00525279 0.00616209 0.00219499 0.00168455 0.00152906 0.00567268 -0.000242734 0.00551762 0.00436599 0.00440109 0.00560964 0.00122934 0.00330825 0.00649057 0.000562061 0.00351288 0.0028103 0.00611241 0.000210773 0.00442623 0.000632319 0.000562061 0.00217792 0.00153113 0.00455027 0.00105835 0.000768768 0.00484458 -0.00432674 -0.00160677 0.00085444 0.00427629 -0.00081959 0.00139639 -0.00116901 -0.00462694 0.00205128 0.00151803 0.00363207 -0.000366485 0.00484334 0.00195576 -3.09335e-05 0.00590164 0.00470726 0.00611241 0.00526932 0.00126464 0.00435597 0.00265096 0.00616759 -0.000571317 0.00183317 0.000926922 0.00198084 0.00548334 -0.00387195 0.00146074 0.00697015 0.000623473 -0.00846228 -0.00936652 -0.0122693 -0.0112667 -0.0111046 -0.0117333 -0.0114025 -0.00791494 -0.000586008 0.00375621 -0.00168513 0.003206 0.00203747 0.00491803 0.00407494 0.00288056 0.00295082 0.003627 0.00395225 0.00116941 0.00104212 0.00655154 0.0088683 0.00559778 0.00107022 0.00708983 0.00996333 -0.0145583 -0.0340917 -0.0383552 -0.0320981 -0.0150256 -0.0138507 -0.013071 -0.0127774 -0.015718 -0.00743885 0.000785492 0.00489451 0.00502291 0.0025888 0.00435597 0.00238876 0.00266979 0.00635297 0.00696975 0.00202807 0.00288855 -0.00189874 0.00537853 0.0138563 0.000303176 0.00574447 0.00428869 0.0121763 0.00144647 -0.0301746 -0.0154331 -0.021298 -0.00883489 -0.0118608 -0.0121465 -0.0178354 -0.0220547 -0.013421 -0.0132489 -0.000380701 0.000726444 0.00346102 0.00569089 0.0059719 0.00435597 0.00311053 0.00237999 -0.00276206 -0.000427889 -0.0110825 0.00289009 0.0103678 -0.02129 -0.00791997 0.00595501 0.0248897 -0.00529487 -0.0050425 0.00934176 0.00177332 0.00464776 -0.00994513 0.000212447 -0.00280691 -0.000294424 -0.0154992 -0.0132113 -0.00831287 -0.000556483 0.00224087 0.000141847 0.00337233 0.00157881 0.00165886 0.00290152 -0.00178319 -0.00559741 -0.00360089 -0.0047307 -0.0151129 -0.0141956 -0.014762 0.0179686 0.0139676 -0.0171924 -0.0359793 -0.00518531 -0.011355 -0.000986805 -0.00798474 -0.00508808 -0.00291969 0.00487335 -0.00999368 -0.0129216 -0.0119685 -0.00490359 -0.000593152 0.00494562 0.00562048 0.00371414 0.00208542 0.000272654 -0.0116628 -0.0110347 -0.000650415 -0.018035 -0.0199888 -0.00949307 0.00591188 0.00136672 -0.0160002 -0.0468197 -0.0521229 -0.0115527 -0.00326564 -0.0117291 0.000422873 -0.000480029 0.00405835 0.0081219 0.00153885 -0.0103733 -0.0085593 -0.00481288 0.00161642 0.00650048 -2.10859e-08 0.00102133 0.00109015 0.00179149 -0.0184232 -0.00171926 -0.00344434 -0.0143748 -0.0131256 0.00617237 0.0135965 0.00244947 -0.00953365 -0.0518219 -0.0449256 0.00571172 0.0151154 0.00912195 0.0207784 0.0297196 0.0188052 -0.00289893 -0.0120319 -0.00127912 -0.0067063 -0.00212441 0.00403285 0.00345478 0.00632319 0.00295488 0.00533852 0.000257984 -0.0150892 -0.00370863 -0.00481372 0.00217445 0.0129568 0.0161006 0.00878712 0.00944186 -0.00770956 -0.0606708 -0.0584031 -0.012448 0.0193819 0.0116395 0.0182479 0.0378471 0.0301739 0.0133194 -0.0133171 -0.0159173 -0.00795994 -0.00226009 0.000466435 0.000318684 0.00217799 0.00427719 0.00237451 0.00150117 -0.00977262 -0.00915484 -0.00558081 0.0106213 0.00754344 0.00583409 0.0119681 0.00288221 -0.0108698 -0.0599848 -0.0636113 -0.0300668 0.00368451 0.0204343 0.0202792 0.0529466 0.0483565 0.0192374 -0.00154968 -0.0174009 -0.00417316 0.00390898 0.00420439 0.00266105 0.00477752 0.0063633 0.00522635 0.00361849 -0.0128021 -0.0200983 -0.00648665 -0.00543771 0.00757885 0.00828721 0.0139222 0.0129905 -0.00989996 -0.0535805 -0.0652854 -0.0337101 -0.00888709 0.016268 0.016273 0.0409823 0.0340563 0.0226872 0.00921966 -0.0149172 -0.0101217 0.00721688 0.0053103 0.00309133 0.00112412 0.00016557 0.00668884 0.00301408 -0.0187268 -0.0284155 -0.0147139 0.00288847 0.00310542 0.0107903 0.0122636 0.0139721 -0.00258186 -0.0405868 -0.0653349 -0.0333233 -0.00235824 0.00979483 0.00700454 0.00842552 0.0091916 -0.00814498 0.00227905 -0.00429388 -0.0115281 0.00677548 0.00809771 0.00526932 0.00470726 0.00601356 0.00679313 0.00316258 -0.0132156 -0.0238122 -0.00661547 0.0173955 0.00813606 0.000788239 0.00201205 0.0141178 0.0029542 -0.0224663 -0.0581166 -0.0386972 -0.00237678 -0.00900837 -0.0160934 -0.00843947 -0.0148077 -0.0255148 -0.0122765 -0.000161174 -0.0135475 0.00322576 0.00755698 0.0018267 0.000351469 0.000426509 0.00528229 0.00173207 0.00218209 -0.0106369 -0.0106601 0.00486687 -0.000909834 0.001542 -0.00456407 -0.0104137 -0.02204 -0.0537474 -0.0867381 -0.0622314 -0.00203213 -0.00654417 -0.0224941 -0.0197151 -0.0242104 -0.0200761 -0.00558148 -0.00464011 -0.011975 0.00617144 0.00277274 0.00660477 0.00527035 0.00209052 0.00696188 0.00276679 0.00585301 0.00274893 -0.0159666 -0.00560221 -0.00751113 -0.0130281 -0.00246986 -0.0137042 -0.0210301 -0.0450281 -0.0797445 -0.0596081 0.00942107 0.00975468 -0.0128502 -0.0131495 -0.0152793 -0.0178741 -0.012228 -0.00155362 -0.00738214 0.0133583 0.00648826 0.00479621 0.00316159 0.00293511 0.004931 -0.000268208 0.00470044 -0.0020527 -0.00549641 0.0040737 0.01778 0.00939263 0.00434263 -0.00987745 -0.00750364 -0.0279756 -0.0611369 -0.0406547 0.012524 0.018343 0.0012296 -0.013419 -0.0116758 -0.00892571 -0.00207371 -0.0115641 -0.00466111 0.0110353 0.00702235 0.000219651 0.00316952 0.00140465 0.00297637 -0.00336916 0.00692731 -0.000536516 0.00307593 0.0178023 0.0213172 0.01727 0.00789011 -0.00592028 0.00394636 -0.0297095 -0.0593255 -0.0450659 0.00263557 0.00594731 -0.00746923 -0.00668313 -0.0104852 0.000736601 0.00226338 -0.0147759 0.00058203 0.00842488 0.00171387 -0.000427292 0.00548009 0.00158515 0.0017134 -0.000587646 0.00560732 -0.0041318 -0.000770909 -0.000244244 0.0107921 0.00942409 0.00739658 -0.00397849 -0.00795113 -0.0311168 -0.0697023 -0.0520955 -0.0237186 -0.00674715 -0.0139867 -0.0151083 -0.0142338 0.0105896 0.000931283 -0.0113018 0.000212079 0.00521645 0.00594007 0.00631095 0.00140515 0.00371213 0.00108761 -0.00227652 -0.00355992 -0.00393262 -0.00622657 -0.00218317 -0.0178314 -0.0232872 -0.0115196 -0.0189031 -0.0240138 -0.0413557 -0.0703779 -0.0597229 -0.0186636 -0.0195634 -0.0146722 -0.00633875 -0.00657548 -0.00378554 -0.0127162 -0.00984501 0.00691499 0.00161653 0.00475966 0.0059719 0.00660422 0.0051887 0.00130049 0.00252609 -0.00310378 -0.00603793 -0.00555613 -0.00166054 -0.0162152 -0.012563 -0.0188929 -0.0209301 -0.025164 -0.0434076 -0.0516009 -0.0545042 -0.0276867 -0.0184763 -0.0272798 -0.0159178 -0.0154363 -0.0134852 -0.0114856 0.00512162 0.0058146 0.00222907 0.0027975 0.00618267 0.00344262 0.00576112 0.00592602 0.00321524 -0.00657672 0.000111211 0.00580795 0.00939575 0.0122563 0.0168617 0.021769 0.00482052 -0.00461139 -0.0254129 -0.0529412 -0.0710085 -0.0433921 -0.0242605 -0.0205918 -0.0199796 -0.00520593 0.000280474 0.0124732 0.00755592 0.00520585 0.00137938 0.000711434 0.00302108 0.00618267 0.00330211 0.00522848 0.00194089 0.00113231 -0.0005802 0.00643125 0.0111645 0.0231487 0.0138945 0.0259432 0.0268225 0.00914787 -0.0102379 -0.0499976 -0.0461094 -0.0246179 -0.0146099 -0.0190364 -0.00741084 0.0129076 0.0147445 0.0136593 0.00752113 0.00290595 0.00578816 0.000870723 0.00196721 0.00562061 0.00653396 0.0048736 -0.00139481 0.000289164 0.00125353 0.00703748 0.00266214 0.002741 -0.00818925 0.00232733 0.00578491 0.000542759 -0.0037527 -0.0207123 -0.0201206 0.00560836 0.00347723 0.000150413 0.000788336 0.0112122 0.0097437 0.00754435 0.00145237 0.00596148 0.00580896 0.00126956 0.00133489 0.00238876 0.00526932 0.00295082 0.00642304 0.00175604 0.00222825 0.00652253 0.00545537 0.00420434 -0.00110222 0.00361689 0.00335987 -0.00147869 0.000433152 0.00603682 -0.000980803 -0.00242645 -0.00783625 0.000546309 -0.000184566 0.00562857 0.00702564 0.00753249 0.00306255 0.00418841 0.00166695 0.00507695 0.00330211 0.00639344 0.000491803 0.00309133 0.00647099 0.00129279 0.00122742 0.0055459 0.00326949 0.00280867 0.00367938 0.00510838 0.00614102 0.00554003 0.0012816 0.00547804 -0.00176695 -0.00521536 -0.00120687 0.00446262 0.00052544 0.00763899 0.00807489 0.0062978 0.00709809 0.00407494 0.00498829 0.000491803 0.00562061 0.00470726 0.000562061 0.00119438 0.00133489 0.000562061 0.00625283 0.00266803 0.00222189 0.00479445 0.00608263 0.00187098 0.00197323 0.00119405 0.00477624 0.00471188 0.00497472 0.00533407 0.00532251 0.0033279 0.00397264 0.00278527 0.00639198 0.00560029 0.00379391 0.00133489 7.02576e-05 0.00449649 0.00548009 
0.00344262 0.00330211 0.00302108 0.00470726 0.00505855 0.000351288 0.00344262 0.00667447 0.000421546 0.0018267 0.0059719 0.00316159 0.00413291 0.00628783 0.000643996 0.00280201 0.00133489 0.00449649 0.00344262 0.00533958 0.000843091 0.00386417 0.00161593 0.00372365 0.000562061 0.00505855 0.00421546 0.00330211 0.00147541 0.00470726 0.00196721 0.00140515 0.00259953 0.000561747 0.005471 0.00542594 0.00492056 0.0014827 0.00128684 0.00339389 0.0121229 0.01019 0.0036961 -0.00288317 0.000267711 1.18548e-05 0.00634695 0.00502684 0.00562073 0.00262666 -0.00682994 -0.00975406 0.00569087 0.00351288 0.00379391 0.000772834 0.00407494 0.000632319 0.00491803 0.00400468 0.000843154 0.00639345 0.00690537 0.00374388 0.00557445 0.0147221 0.0236066 0.0158443 0.0051166 -0.0181611 -0.0119166 0.0199271 0.0112294 -0.0104316 -0.0218065 0.00128325 0.00268766 0.00424537 -0.00745619 -0.0134802 0.000125163 0.000562061 0.00667447 0.00126464 0.0018267 0.00442623 0.00175644 0.00232815 0.00141289 0.000485708 0.00565233 0.00035616 0.00898029 0.0163007 0.0252281 0.000123046 -0.0587762 -0.084647 -0.0388612 0.0230021 0.0325576 0.0356207 -0.0178878 -0.0206932 0.00324014 0.0157962 0.00576753 0.0180079 0.00284479 0.00531006 0.00140515 0.00217799 0.00358314 0.00295082 0.000351288 0.00177591 0.00141259 0.00831661 0.00636424 0.00718207 0.0158325 0.0216025 -0.0158464 -0.0635303 -0.0618249 -0.0121325 0.00023852 -0.0308128 -0.00785004 0.0274255 -0.0303319 -0.0197306 0.00611203 0.000289109 0.0138151 0.00476787 0.00580376 0.0013008 0.00221635 0.00562061 0.00337237 0.00126464 0.00174852 0.00654375 0.00147823 0.0435487 0.023602 0.00791753 0.0102616 -0.00752144 -0.0396919 -0.0739951 -0.0170612 -0.0151379 -0.0659387 -0.0414203 -0.0163369 0.030563 0.0202666 -0.00883493 -0.00568877 0.00162903 -0.000260966 -0.00762833 -0.0063264 -0.00327744 0.00655258 0.00456671 0.00203747 0.00386417 0.00345563 0.000865927 -0.00217633 -0.00641556 0.00833131 0.0066201 -0.0316044 -0.0616801 -0.0880165 -0.0849564 -0.0326468 -0.0472294 -0.0609546 -0.0721094 -0.05536 -0.00349448 0.0157273 -0.00752603 0.00558567 0.00298957 -0.0179689 -0.0126071 -0.0207117 -0.00721678 -0.000753836 0.00689975 0.000491936 0.000494468 0.00443575 0.00666892 -0.0189824 -0.0140154 0.0185892 -0.0286845 -0.0675346 -0.0847634 -0.0296006 -0.00997433 -0.0462028 -0.052533 -0.097205 -0.101202 -0.0951216 -0.0484601 -0.0430967 0.0076078 0.0088533 0.00194127 -0.00112399 -0.00938913 -0.0231509 -0.0150268 -0.000564132 0.00524207 0.00245956 0.0032994 0.0063106 -0.00610637 -0.0106427 -0.00775969 0.0152837 -0.049832 -0.0537431 -0.0370422 0.0240192 -0.0465787 -0.0498022 -0.0737987 -0.122181 -0.159663 -0.133806 -0.0872826 -0.0350884 0.048954 0.0140484 -0.0234738 0.0287 0.00878928 -0.0192245 -0.0139755 -0.00158082 0.00658432 0.00505864 0.00657682 -0.00621221 -0.0101153 -0.00262179 -0.00337867 -0.0317217 -0.0303439 -0.0487578 -0.00469521 -0.0350783 -0.0698886 -0.0523894 -0.0773545 -0.11497 -0.117616 -0.0786392 -0.0429565 0.0245902 0.0838184 -0.0194877 -0.0475756 -0.0352079 -0.0012236 -0.0271592 -0.0195396 -0.00268299 0.00610229 0.0069555 0.00233233 -0.00602057 -0.017126 -0.0131119 -0.0422075 -0.0529656 -0.0112678 -0.017796 -0.0131012 -0.0282869 -0.0495962 -0.0828517 -0.0952737 -0.0769415 -0.0465452 -0.0190633 0.0366409 0.0743765 0.0572207 -0.0112687 -0.0454677 -0.0763278 -0.041836 -0.013561 -0.0133664 -0.00202706 0.00298226 0.00295082 0.00263133 0.00707372 0.00438992 -0.016509 -0.0659479 -0.0477949 0.0225547 -0.00536361 0.02318 0.04345 -0.0544991 -0.0394317 -0.0364841 -0.054373 -0.0686676 -0.0667581 -0.0027797 0.0335497 0.0229192 -0.0342376 -0.0671306 -0.0660699 -0.0531412 -0.0069771 -0.00478455 -0.00153777 0.00363259 0.00161593 0.00914966 0.00456584 -0.00297344 -0.0176551 -0.0606905 -0.0509283 0.0502462 0.0210946 0.0648762 0.0325088 0.00271186 -0.030044 -0.0794319 -0.122074 -0.113014 -0.110846 -0.0766875 -0.000487111 0.0362284 -0.0130618 -0.0393683 -0.0777191 -0.0798454 -0.0281332 0.00209171 0.00167336 0.00112412 0.00189696 0.00573209 0.00316886 -0.00931507 -0.0160449 -0.0579683 -0.0244295 0.0441939 0.0149101 0.066406 0.0111292 -0.0550323 -0.101525 -0.160774 -0.186924 -0.16442 -0.178032 -0.0812174 0.0070279 0.0639985 0.00491995 -0.0506272 -0.0632873 -0.067136 -0.080638 0.00660336 0.00620868 0.000702576 0.00435597 0.00393635 0.0066789 -0.000302942 -0.00700025 -0.0430857 0.00466675 0.0544357 -0.0093263 0.0172077 -0.0627826 -0.0835188 -0.136401 -0.159297 -0.163105 -0.187049 -0.152311 -0.0337251 0.0499357 0.0965389 0.0320604 -0.031908 -0.0215206 -0.0664678 -0.0932025 -0.017288 0.00396217 0.00309133 0.00463868 0.00421984 0.0007814 0.00808261 -0.00928087 -0.0426856 0.0253714 0.00218365 -0.0355659 -0.0913525 -0.0368958 -0.0847281 -0.0983473 -0.106918 -0.115605 -0.115979 -0.0617319 0.0151628 0.0888163 0.0671207 0.0236044 0.00426154 0.0305398 -0.0694706 -0.0959132 -0.040442 -0.000490284 0.00498931 0.00471686 0.00430269 0.00304977 0.0086915 -0.0279328 -0.0800037 -0.0494009 0.040705 0.0603269 -0.00200638 0.0159022 -0.0680146 -0.0731203 -0.0985644 -0.114441 -0.0904666 -0.0864899 0.0487422 0.131515 0.090787 0.0498038 0.0114034 -0.0139833 -0.100061 -0.100129 -0.0117112 -0.00550938 0.000103906 0.00590164 0.00590544 0.00665606 0.00301292 -0.0433668 -0.0611541 -0.0279189 0.0272985 0.0527539 0.0323525 0.0501171 -0.0135307 -0.0512047 -0.0475416 -0.0549279 -0.0836809 -0.079135 0.0177238 0.108247 0.0924911 0.0217466 -0.0323409 -0.0723505 -0.10688 -0.0802518 0.00467594 0.0018275 0.00454293 0.00077191 0.00484932 0.00436486 0.00155415 -0.0475991 -0.0478291 -0.0533704 -0.0384977 -0.00784049 -0.00764343 -0.00637513 -0.0123157 0.00734026 -0.0213477 -0.0627253 -0.0767957 -0.0213914 -0.0116037 0.0645337 0.0349736 -0.0573281 -0.102412 -0.0999354 -0.104093 -0.0430055 -0.00130699 0.00330354 0.00398906 0.00316159 0.00264186 -0.00238929 0.00138671 -0.0169617 0.00565209 -0.0128872 -0.0373315 -0.0138679 -0.00821159 0.00358991 -0.0144258 0.00934494 -0.0350062 -0.0851199 -0.088913 -0.0402132 0.0176532 0.0227189 0.0309482 -0.0344382 -0.06935 -0.0619025 -0.0807371 -0.0398986 0.000764954 0.000483469 0.00651722 0.00484778 0.00640131 0.0043883 -0.000762139 -0.00685125 -0.012745 0.00832525 -0.0100866 -0.0556653 -0.080198 -0.0330322 -0.023977 -0.00705052 -0.0646228 -0.0606472 -0.0826295 -0.0281248 0.0435137 0.0437394 0.0606907 0.0210631 -0.0263858 -0.0830464 -0.0643778 -0.0249163 0.000244585 0.0024806 0.00449649 0.00238876 0.00674426 0.00621391 -0.00124466 -0.00220194 -0.00876806 -0.00389193 -0.010173 -0.0391453 -0.0914955 -0.100223 -0.0760392 -0.0499113 -0.0398991 -0.0150125 -0.01212 0.0211667 0.0826351 0.063844 0.0502615 0.0357106 -0.0136533 -0.0562128 -0.0184688 -0.00547103 0.00650036 0.000570638 0.00632319 0.00274005 0.00583138 0.00109436 -0.000522272 -0.00768036 -0.00392279 -0.00983128 0.00220018 -0.02191 -0.032102 -0.0640489 -0.0796009 -0.0667102 -0.0335235 -0.0583637 -0.0358515 -0.0317542 -0.0171804 -0.0353221 -0.0298907 0.0187473 0.00211534 -0.0219009 -0.00454806 -0.00116768 0.000814917 0.00392792 0.00512881 0.00442623 0.00519906 0.00219747 -0.000601008 -0.00161473 -0.00418229 -0.00888285 -0.00594645 -0.0196357 -0.0262943 -0.0310179 -0.0604169 -0.0561508 -0.0481792 -0.0797728 -0.0681938 -0.0481028 -0.0287042 -0.0482139 0.00105256 0.0470769 0.0124917 -0.00940988 0.00144653 -0.00474185 -0.000128879 0.00560813 0.0059719 0.00259953 0.0041452 0.000859935 0.00612216 0.00226724 0.0091782 0.00450472 -0.00229789 -0.0103972 -0.033701 -0.0408475 -0.0301212 -0.0217582 -0.0270924 -0.0306537 -0.0477371 -0.0167181 -0.0347179 -0.0175098 0.00116925 0.0250293 0.00814718 0.0009108 0.00765197 -0.00312736 0.00291783 0.0021337 0.00245902 0.00569087 0.00337237 0.00337237 0.00283855 0.0025752 0.00555632 0.00419925 0.00141412 0.00312614 -0.000474604 -0.0142006 -0.0100964 -0.0265471 -0.00450715 -0.00306714 -0.00443427 -0.0197517 -0.0478188 -0.0463629 -0.0327941 0.000170371 0.0221703 0.00355347 0.00340676 0.00459016 0.00587805 0.00472168 0.00351288 0.00555035 0.000772834 7.02576e-05 0.00427768 0.0068614 0.00470829 0.00167341 0.000232921 0.00569405 0.00263226 0.00540775 -0.000177202 -0.00768061 -0.0172691 -0.0132006 -0.00380501 -0.0107648 -0.0283168 -0.0211641 -0.0126867 0.00372653 0.00323242 0.0010058 0.00536345 0.00498829 0.00512881 0.00154567 0.00470726 0.00491803 0.00266979 0.00126464 0.00674473 0.0023185 0.00639398 0.00295552 0.00152071 0.00247179 0.00649649 0.00594596 0.00166029 0.0010893 0.00313957 0.00506958 0.00482595 0.00664996 0.00195087 -0.00699022 -0.0131993 0.00540862 0.00091254 0.00652721 0.00238876 0.000491803 0.00618267 0.00653396 0.00540984 
0.00259953 0.00295082 0.00618267 0.00028103 0.000351288 0.000210773 0.004637 0.00548009 0.00252927 0.00484778 0.00449649 0.00295082 0.00217604 0.0012029 0.00560422 0.00666793 0.00295082 0.00175644 0.00203747 0.00681499 0.00337237 0.00435597 0.00569087 0.00512881 0.00358314 0.00210773 0.000351288 0.00224824 0.00154567 0.00210773 0.0028103 0.00653396 0.00203747 0.00161443 0.00321824 0.00688314 0.00204263 0.00438128 0.00511181 0.00659053 0.00157634 0.000780543 -0.00018534 0.00355365 -0.0021434 0.00037252 0.00608687 0.0022757 0.00105566 0.00549664 0.00666641 0.00155244 0.00295082 0.00674473 0.00210773 0.00477752 0.000843091 0.00323185 0.00358314 0.00470726 0.00189699 0.00104894 0.00736269 0.0118496 0.00718117 0.00170404 0.00781008 0.00689678 0.00225593 0.00120632 0.00589556 0.00553873 0.00288551 0.00762263 0.00392732 0.00762152 0.00893637 0.00350451 0.0026995 0.000452147 0.00123939 0.000140515 0.00562061 0.00421546 0.00330211 0.00590164 0.00302108 0.00493682 0.000928391 0.00132248 0.0123533 0.0123643 0.00808741 -0.00500169 0.00113473 -0.00374278 -0.0019423 0.000828203 0.0020752 0.00887247 0.012851 0.0154568 0.0108744 0.0067925 0.0123839 0.0126202 0.00907584 0.00266398 0.00775707 0.00346063 0.00274005 0.00168618 0.00562061 0.000491803 0.00625293 0.00467025 0.0029844 0.00622043 0.0126484 0.0111378 0.00969941 -0.00191098 -0.00345259 -0.0132708 -0.0178405 -0.0249096 -0.0271684 -0.0222795 -0.0165621 0.000499925 -0.00168398 0.00870764 0.0115167 0.00507567 0.0105936 0.00495327 0.00425044 0.00271207 0.00462372 0.00498829 0.00548009 0.000702576 0.00514111 0.00109898 0.00384118 0.0026627 0.00783748 0.00410889 0.00413256 -0.00445084 -0.00607361 -0.0274654 -0.0314349 -0.0386656 -0.0493772 -0.0215845 -0.0366351 -0.0241308 -0.0104368 0.000416064 0.00489343 -0.00305526 0.000638873 0.0012555 0.00242129 -0.000802352 0.00609815 0.00344263 0.0018267 0.00189696 0.00345067 0.00305586 -0.000499172 -0.00302725 -0.00412933 -0.00270953 0.000469967 -0.0186435 -0.0439224 -0.0231443 -0.00826304 -0.0178361 -0.0154504 -0.0028666 -0.014818 -0.0184122 -0.0141081 0.00490523 0.00317786 -0.00267597 -0.00663542 -0.00669007 -0.00203746 0.000463343 0.00103759 0.00775697 0.00323182 0.00255582 0.00300675 -0.00132676 -0.00624033 -0.00888018 -0.00975768 -0.00431747 -0.0298854 -0.0351017 -0.0450445 -0.0174377 0.00968367 -0.00937087 -0.0160503 0.0183202 -0.00074798 -0.00664812 -0.0244776 -0.0245183 -0.00757135 -0.0019098 -0.000257039 -0.00776703 -0.00324186 0.00430797 0.00260568 0.0055469 0.000983492 0.00115973 -0.000335548 4.0863e-05 0.00332785 -0.000732149 -0.00391812 -0.0298311 -0.0308072 -0.028709 -0.0205687 -0.0131862 0.00663333 -0.0114622 -0.00935316 0.0115739 -0.0195755 -0.0359464 -0.023504 -0.0284183 -0.0229864 -0.0124964 -0.000160277 -0.0138673 -0.00307319 -6.09984e-05 0.00480728 0.00414999 0.00498827 0.00478118 0.0063472 0.00290632 0.000506502 -0.000582687 -0.0318716 -0.0256151 -0.026555 -0.0111564 -0.0218737 -0.014328 -0.00656882 -0.0303791 -0.0166612 -0.00489831 -0.0214226 -0.0464913 -0.0276199 -0.00196614 -0.00941376 -0.0343153 -0.0310179 -0.0122783 -0.00648966 0.00105947 0.00560649 0.00673379 0.0028103 9.15396e-05 0.00384978 0.00615562 -0.000533277 -0.00131775 -0.0264536 -0.0134789 -0.00372587 -0.0179241 -0.0295064 -0.00476517 -0.0220982 -0.037006 -0.036738 -0.0145299 0.00305362 -0.0261248 -0.0225294 -0.0143442 -0.00213215 -0.0164825 -0.0290541 -0.0273918 -0.00106557 -0.00184343 -0.000148166 0.00425671 0.00400468 0.00557421 0.00339829 -0.00216381 -0.000705814 -0.0247011 -0.0161357 0.0152995 0.0264727 -0.00655217 -0.0162299 -0.00201612 0.00279989 -0.0265804 -0.0292044 0.00437248 0.0211031 -0.00669681 -0.0216166 -0.0103603 -0.00107066 -0.00200665 -0.0264114 -0.0305115 -0.00570848 -0.00339527 0.00240096 0.00363818 0.000351288 0.00368046 0.00389533 -0.00803119 -0.0106909 -0.0381122 -0.0119224 0.0223195 0.0247965 -2.77835e-05 -0.000188228 0.00876234 0.0132411 -0.0220587 -0.0230533 0.00495023 0.0223785 -0.000116368 -0.0255422 -0.0101301 0.00626851 0.00654089 0.00115033 -0.0224485 -0.0213552 -0.00114347 0.00456993 0.00393443 0.00105386 0.00179366 0.000660888 -0.00553636 -0.00711943 -0.0324548 -0.0113596 0.0203967 0.0163029 0.000849779 -0.00766063 0.00192721 0.00186578 -0.0303331 -0.0352499 -0.00855546 0.00715546 -0.0100063 -0.0236524 0.0073899 0.0015723 0.0176606 0.012506 -0.00796693 -0.0233242 0.000263144 -0.000171432 0.0041452 0.0059719 0.00235118 0.00112543 0.00643057 0.000719725 -0.0249137 -0.00761329 0.0234204 0.0253682 -0.00137876 -0.00509422 0.000588105 -0.00148817 -0.0312767 -0.0356452 -0.0108154 0.0137708 0.00424861 -0.0140565 0.0159918 0.0100371 0.0136914 0.0185316 -0.00602182 -0.0346842 -0.00311495 0.00254236 0.00210773 0.00372303 0.00648799 0.0058907 -0.000768943 0.00539859 -0.0213382 -0.0274202 0.0256153 0.0327168 0.014998 0.0114521 0.0107222 0.0159604 -0.026648 -0.0410452 -0.0207591 0.0109656 0.00673515 0.000117485 0.00753493 0.00666313 0.0158085 0.0212218 -8.74499e-05 -0.0391383 -0.00389678 -0.000484501 0.0049178 0.0067412 0.00599131 0.00462259 0.00555486 0.00320407 -0.0196037 -0.0241017 -0.00204019 0.0162736 0.0281828 0.031205 0.0351781 0.0153946 -0.0192878 -0.0389455 -0.0282733 0.00715298 0.000849745 0.00755775 0.012918 0.012975 0.00437632 0.0135389 -0.00816874 -0.0341876 -0.00830845 -0.0032523 0.00490699 0.000772834 0.00461541 0.00536049 0.00429618 -0.00130988 -0.0078538 -0.0395138 -0.0297313 0.00814102 0.0100909 0.0198275 0.0127578 0.00980073 -0.0141735 -0.0407709 -0.0429815 -0.00417056 0.00281276 0.0168748 0.0203279 0.0160605 -0.00215046 -0.000912047 -0.0168728 -0.038957 -0.00501448 0.00177255 0.00464646 0.00197447 0.000142435 0.00678341 0.0100191 0.00254425 -0.000670541 -0.0277776 -0.0438938 -0.0261522 -0.00547315 0.00713212 -0.000466199 -0.0137783 -0.0282154 -0.0326032 -0.0331934 0.00847343 0.00264989 0.0185922 0.0226353 0.0127864 -0.0124771 -0.0118799 -0.042286 -0.0408764 -0.00911815 0.00343484 0.00205639 0.00604215 0.00659948 0.00478706 0.00353967 0.00244954 0.00507533 -0.00820407 -0.050031 -0.040688 -0.0346751 -0.00407637 -0.0124549 -0.0139895 -0.0294487 -0.0310041 -0.0341745 -0.0117452 -0.00220693 0.00472058 0.000431842 0.00524955 -0.0109859 -0.0151603 -0.0443261 -0.0256005 -0.00397699 -0.000492662 0.00154395 0.00189696 0.00203985 0.00552081 0.00304854 0.00604329 -0.00112325 -0.00723435 -0.0355265 -0.0474594 -0.0363735 -0.0171812 -0.00278158 -0.0155482 -0.0171386 -0.0211015 -0.0347271 0.00373139 -0.00778799 -0.00518412 -0.0106077 -0.0114144 -0.0205624 -0.0342402 -0.033721 -0.00893616 -0.00374928 0.000168809 0.00505855 0.00407494 0.00569693 -0.000730645 0.000412012 0.00140602 -0.000115267 -0.0123824 -0.0225702 -0.0130315 -0.0234893 -0.0279224 -0.0243052 -0.0178391 -0.0100489 -0.0180898 -0.0268738 -0.00281807 -0.00250257 -0.00862929 -0.0199396 -0.0312713 -0.044872 -0.0286232 -0.00489753 -0.00293723 -0.000846185 -9.72593e-05 0.00386417 0.0041452 0.00604215 0.00286429 0.0031452 -0.00211406 0.000997834 -0.012964 -0.0185156 -0.0120667 -0.0105712 -0.00932679 -0.0199527 -0.0183998 -0.00713884 -0.0276984 -0.0405331 -0.0359039 -0.0196078 -0.0435608 -0.0445463 -0.042218 -0.0275456 -0.00487013 -0.00060949 0.00434764 0.00615668 0.00694606 0.00533958 0.004637 0.0036534 0.00326962 0.00375108 0.00338631 0.00795396 -4.82788e-05 0.00559952 -0.00295873 0.000404656 0.00357343 0.000649964 0.00273216 0.00876001 -0.0262066 -0.0365177 -0.0250833 -0.0165486 -0.0204212 -0.0246404 -0.0104098 -0.0090498 0.00197889 0.00239541 0.000902426 0.00407151 0.000461392 0.00154567 0.00140515 0.00674473 0.00663244 0.00349819 0.012902 0.0127001 0.0138495 0.0229416 0.0188126 0.00969773 0.0118522 0.00969092 0.00744655 0.0117244 -0.0161094 -0.026112 -0.00620162 0.00654735 -0.00950263 -0.0204842 -0.00166423 0.0025964 0.00519013 0.00299785 0.000340415 0.00184293 -0.000215976 0.00274005 0.00512881 0.00238876 0.00126464 0.00452919 0.00766248 0.0118077 0.0114225 0.0128981 0.0165011 0.0202813 0.0186579 0.0206346 0.0161613 0.0122268 -0.000725286 -0.00397291 -0.00700188 0.00797385 0.00888125 -0.00281671 0.00850326 -0.00138113 0.00939845 0.00249473 0.000734134 0.00144774 0.000600444 0.00590164 0.00583138 0.000983607 0.00470726 0.00526669 0.00516901 0.00325383 0.00867936 0.00570952 0.00370972 0.00645878 0.00795314 0.00475661 0.0102768 0.00637734 -0.000777054 0.000374631 -0.00112053 -0.00175163 0.00550506 0.00307744 0.0064373 -0.00248551 -0.000247517 0.00665621 0.00526932 0.00217799 0.000210773 0.00323185 0.00147541 0.00484778 0.00688525 0.00435597 0.00477752 0.00597183 0.00597144 0.00104505 0.00398579 0.000969213 0.00570059 0.00351545 0.00305511 0.00409044 0.00577967 0.00761737 0.00140606 0.00615653 0.0061351 0.00183914 0.00646992 -0.000722248 0.000172576 0.0036534 0.00266979 0.00442623 0.00224824 0.00540984 
0.000210773 0.00274005 0.00540984 0.00161593 0.00337237 0.00154567 0.00653396 0.00618267 0.00428571 0.00133489 0.00618267 0.00112412 0.00521833 0.00662899 0.00172124 0.00512148 0.00344262 0.00540984 0.00288056 0.00435597 0.0041452 0.00351288 0.00252927 0.00428571 0.00674473 0.00583138 0.00639344 0.00484778 0.00393443 0.00604215 0.00681499 0.00175644 0.00147541 0.00322959 0.00558588 0.00652591 0.00345412 0.00573168 0.00133495 0.00190066 0.00646921 0.00390501 -0.000128383 0.00167871 0.0022448 -0.0014408 0.00557085 0.000135432 0.00167172 0.00189551 0.00506681 0.00585907 0.00210773 0.00681499 0.00210773 0.00491803 0.00203747 0.00653396 0.000913349 0.000140515 0.00365359 0.00238386 0.00735352 0.00877409 0.00502955 0.00523638 -0.000122671 0.000630766 0.00476969 0.00335118 0.00223769 0.00766879 0.00240615 0.00643514 0.00206925 0.00201832 0.00392077 0.00493458 0.0041786 0.00232645 0.00486954 0.00330211 0.0028103 0.0036534 0.00351288 0.00519906 0.00386417 0.00669343 0.00556558 0.00386318 0.00324841 0.00203654 0.00476393 0.000956754 -0.000878937 -0.00202508 -0.00336931 -0.00298498 -0.00031583 0.00603131 0.00545613 0.00531436 0.0103945 3.21116e-05 0.00652885 0.011009 0.0125694 0.00379755 0.00565757 0.000600131 0.0018267 0.00632319 0.00435597 0.00252927 0.00168618 0.00184023 0.00350882 -0.00271882 0.000268973 -0.00262607 -0.00468142 -0.0113422 -0.0153582 -0.0292712 -0.0389261 -0.0589445 -0.0603896 -0.0680461 -0.0435134 -0.0087778 -0.00285085 0.00184906 0.0149221 0.00729851 0.00460152 0.00187144 0.00170215 0.00479019 0.00352633 0.00126464 0.000210773 0.00288056 0.00272369 0.00518227 0.00120961 -0.00421162 -0.00619264 -0.00896945 -0.00649028 -0.00927051 -0.0110368 -0.0391394 -0.0523723 -0.0787087 -0.0992898 -0.0639403 -0.066577 -0.0394391 -0.022903 -0.0107883 -0.00985271 -0.00687135 -0.00787675 0.00162141 0.00354081 0.00455652 0.00186342 0.00316165 0.00379391 0.000210773 0.00200982 0.000889125 -0.00434058 0.00186424 0.0012245 0.00894119 0.0182378 -0.00808014 -0.0495747 -0.0438893 -0.033881 -0.0555772 -0.033392 -0.0319208 -0.0317752 -0.0145481 -0.0281938 -0.00737158 -0.0117425 -0.0112573 -0.0153704 -0.000259191 0.00485078 0.00148602 0.00221262 0.00276195 0.00274024 0.00151425 0.00663957 0.00465803 -0.000331204 -0.00299613 0.00934249 0.023608 0.0165821 0.0116238 -0.00154952 0.0147295 0.0181155 -0.0165166 -0.029637 0.0214465 0.00884164 0.00846732 -0.0309613 -0.0422795 -0.0165067 -0.00573487 -0.00375213 0.00043419 0.00676251 0.00163617 0.00270966 0.00101025 0.00674554 0.00462456 0.00240763 0.00045059 0.00444794 0.0097747 0.0220323 0.0102612 0.0167703 0.027137 0.00545555 0.00206192 -0.00576412 -0.0300209 -0.025203 0.00931007 -0.0091838 -0.00521852 -0.0154274 -0.0388534 -0.029846 -0.0267422 -0.00413714 0.00737468 0.00344934 4.56035e-05 0.00584311 0.00465144 0.00421559 0.00761558 0.00103028 0.00230355 0.00897811 0.0159868 0.00700791 0.00442529 -0.00500904 0.00678864 -0.0209753 -0.0136522 0.00369749 -0.035783 -0.0232874 -0.00532171 -0.020565 -0.0256691 -0.0162516 -0.00818834 -0.0285232 -0.0405447 -0.0305467 -0.00575046 -0.00108241 0.00259922 0.00340605 0.00169982 0.00330211 0.00621853 0.00648797 0.00637073 0.00512766 0.0110776 -0.00616693 -0.00735669 0.010412 -0.000458348 -0.0210276 0.0200135 -0.00675264 -0.0408178 -0.0573451 -0.0374102 -0.0121498 -0.0136672 -0.0132349 -0.021295 -0.0158133 -0.00744733 -0.0308187 -0.0289673 -0.00134896 0.00305982 0.000383388 0.0003778 0.00168618 0.00699507 0.00600768 0.00350981 0.0107353 -0.020351 -0.0074566 0.0410469 0.0371101 0.00557582 0.00100165 0.0183004 0.00743763 -0.0670649 -0.0994181 -0.0422712 -0.00521233 -0.000948194 -0.020821 -0.0187535 0.00730386 0.0172103 -0.0205168 -0.0313205 -0.0013437 0.000449241 0.0048474 0.00220491 0.000351288 0.00205595 0.00210159 0.000451861 0.00189912 -0.0390256 -0.0119258 0.0264952 0.0130874 -0.00241854 0.00429934 0.0220351 -0.0133707 -0.087604 -0.0905079 -0.020283 0.0242344 0.0195427 -0.0152468 -0.0178769 0.0117046 0.0187685 0.0127044 -0.0232219 -0.0215267 0.000370424 -0.000908035 7.02576e-05 0.000702576 0.00527768 0.00607508 0.00343313 0.00165298 -0.0301867 -0.0201112 0.00310941 -0.0129229 -0.00559656 0.0222076 0.00324015 -0.0288926 -0.089862 -0.0529611 0.0112672 0.03744 0.0212443 -0.0139685 -0.00744287 0.0138092 0.0301663 0.0232226 -0.00492726 -0.02584 0.00104051 0.00521317 0.00576112 0.00449649 0.000265286 0.00331632 0.00322744 0.00318836 -0.020782 -0.0224976 -0.00595536 -0.0156522 -0.00943296 0.027825 0.0195205 -0.0119226 -0.0470155 -0.0349019 -0.00880189 0.0334724 0.0295676 0.0188461 0.0203772 0.0145997 0.0211639 0.0209728 0.000249682 -0.0304125 0.00129992 0.00457941 0.00112412 0.00499164 0.00605654 0.00670673 -0.00239253 -0.00431545 -0.0224724 -0.0378343 -0.00624806 -0.0202997 -0.0330729 -0.00104307 -0.00404504 -0.0215181 -0.0488684 -0.0696143 -0.0309386 0.0217592 0.0539539 0.0354659 0.00631886 0.00561511 0.0176297 0.00593105 -0.00687618 -0.0411503 0.001928 0.0014862 0.00407519 0.00079193 0.00219048 0.00265095 0.00204445 -0.00173203 -0.0209707 -0.0270144 -0.0133294 -0.0240076 -0.0436047 -0.0227085 -0.0239388 -0.0192032 -0.0544727 -0.0768538 -0.0385928 0.0357492 0.0537105 0.0294882 0.0046776 -0.0142552 -0.0208644 -0.0211246 -0.0309819 -0.0490398 -0.000762435 0.0042154 0.001951 0 0.00500824 -0.000379036 -0.000525946 -0.00837035 -0.00538117 -0.0180496 -0.0072522 0.0104512 -0.00634347 -0.0158274 -0.00708464 -0.0125535 -0.0387285 -0.0598746 -0.0405558 0.0139023 0.0410438 0.0448709 0.00433469 -0.0149262 -0.0382055 -0.0278239 -0.02648 -0.0391743 0.00431178 0.00245764 0.0012592 0.00281279 0.00533835 0.00534664 -0.00485747 -0.012381 -0.00818432 -0.0178153 -0.0171119 -0.000724749 0.00224523 0.015174 -0.0089223 0.00467718 -0.0243736 -0.0559807 -0.0485841 -0.00132903 0.0173254 0.0100352 -0.0134238 -0.0236705 -0.0230431 -0.00772921 -0.0377693 -0.0259377 0.00187851 0.00408503 0.00533294 0.00259953 0.00426637 0.00558725 -0.011419 -0.0149613 -0.016333 -0.0116893 -0.0360816 -0.0314464 -0.0161789 0.00180162 -0.0108726 -0.00517441 -0.0153049 -0.0614836 -0.0557911 -0.0382176 -0.0109797 -0.0230322 -0.0327281 -0.0439645 -0.0335303 -0.0169963 -0.0383503 -0.0147072 -0.000481659 0.00341939 0.000469294 0.000702576 0.00499195 0.00358407 -0.00680572 -0.01845 -0.0214362 -0.0258264 -0.028293 -0.0452044 -0.0469881 -0.025992 -0.0183796 -0.0260211 -0.0329594 -0.0484432 -0.0626568 -0.0335397 -0.0321211 -0.0476787 -0.0423189 -0.0472899 -0.0344043 -0.032177 -0.0314749 -0.0011086 -0.00112344 0.00575594 0.00309133 0.00400468 0.00357188 0.00323373 -0.00992206 -0.0197424 -0.0301602 -0.0376283 -0.0357191 -0.0243122 -0.0235046 -0.0312609 -0.0211438 -0.014174 -0.0172547 -0.0473006 -0.0629105 -0.0453625 -0.0271485 -0.0466048 -0.0569467 -0.0694285 -0.0510749 -0.0250694 0.00355419 -0.000612472 0.00258568 0.000457961 0.000632319 0.00548009 0.00512881 0.00542961 -0.00454612 -0.00624412 -0.0123917 -0.0294196 -0.0234724 -0.00482804 0.00135624 0.00167518 -0.0180787 -0.0206379 -0.0121416 -0.0591971 -0.0836843 -0.0670851 -0.0565598 -0.065256 -0.068892 -0.0614779 -0.0383054 0.00331233 0.00234009 0.0017432 0.00496862 0.00576013 0.00569087 0.00548009 0.00540984 0.00134944 0.000627383 0.000963946 -0.00241817 -0.00543002 -0.00384831 0.00425299 -0.00886465 -0.00286651 -0.00797175 -0.0147968 -0.0169382 -0.0591475 -0.0591853 -0.0506431 -0.0223434 -0.0239506 -0.0342408 -0.0203872 -0.0102626 0.00689864 0.00679002 0.00310642 0.00302701 0.00572149 0.00435597 0.00421546 0.00196721 0.000321338 0.00169331 0.000345479 0.010185 -0.000261567 0.00170698 0.00928969 0.00619314 0.0230513 0.022208 0.00619511 -0.00229801 -0.0165668 -0.020019 0.00322299 0.0270299 0.0212269 -0.00680954 -0.00685214 -0.0142866 0.0114567 0.00449721 0.00276248 0.00135312 0.0037241 0.00533958 0.00505855 0.0036534 0.00358314 0.000706081 0.00893134 0.0103837 0.00754032 0.00948413 0.0032038 0.0082185 0.0202275 0.0188072 0.0128432 0.0225339 0.0328642 0.0198314 0.0110941 0.0263392 0.038841 0.0197064 0.0062418 -0.0199084 0.00693983 0.00421972 0.00709283 0.00192882 0.00377682 0.00590164 0.000632319 0.00358314 0.00316159 0.00257279 0.0029925 0.00299093 0.00274261 0.00541348 0.00769569 0.00926764 0.0146163 0.00887853 0.00860444 0.014753 0.0153909 0.0180285 0.00906865 0.00945788 0.0220125 0.0194156 0.00386033 -0.009027 0.00196219 0.00171541 0.00203747 0.00604215 0.00238876 0.00274005 0.00393443 0.00674473 0.00259953 0.0023185 0.00548009 0.00175723 0.00154956 0.00215049 0.00141881 0.0062849 0.00578033 0.00388687 0.00151134 -0.000115604 0.0069692 0.0066366 0.00709951 0.00476937 0.00546607 0.00333031 0.00416643 -0.00463058 -0.00546823 0.0028103 0.00540984 0.00681499 0.00126464 0.0023185 
0.00505855 0.000983607 0.00576112 0.000632319 0.00548009 0.00259953 0.00372365 0.00491803 0.00428571 0.00421546 0.00337237 0.00555035 0.00157468 0.00222627 7.60229e-05 0.00246218 0.00449649 0.0041452 0.00274005 0.00583138 0.000351288 0.0069555 0.00512881 0.00147541 0.000772834 0.0028103 0.00660422 0.000702576 0.00456674 0.000913349 0.000983607 0.00154567 0.00604215 0.000702417 5.93418e-05 0.000110775 0.00628668 0.00556757 0.00601315 0.00431154 0.000689376 0.00301362 0.00167953 0.00851616 0.00409861 0.00123805 0.00668707 0.0062979 0.00503468 0.00447022 0.00282687 0.00307653 0.00175644 0.00660422 0.0018267 0.00667447 0.00245902 0.004637 0.00288056 0.0059719 0.00154563 0.0059703 0.00595281 0.00328476 0.00118348 0.00197783 -7.30008e-05 0.00335653 0.00578885 0.00769696 -0.0225756 -0.0286333 0.0104865 0.0641463 0.0588603 0.00831524 0.000834422 0.000704347 0.000809435 0.00419242 0.00457192 0.00639344 0.00316159 0.00484778 0.0028103 0.00576112 0.00519906 0.000267467 0.00532872 -0.00217362 0.000449022 0.00120393 0.00524009 0.0116909 0.0095198 0.00495225 0.00837152 -0.00583986 -0.0295738 -0.021482 -0.00799378 0.013616 0.0706268 0.0455508 -0.0122536 -0.00800976 -0.00124206 0.00406788 0.00459056 0.00488678 0.000843091 0.00266979 0.00660422 0.00161593 0.000351288 0.0018508 0.0035773 -0.000771153 0.00315013 0.00628107 -0.00409858 -0.00168003 0.00120895 0.0120569 0.0146847 -0.0369017 -0.0401115 -0.0101049 0.00986312 -0.000655822 0.0290673 0.0316697 0.00298233 -0.00535812 -0.0105627 0.000136057 0.00266425 0.00197533 0.00579242 0.00533958 0.00175644 0.00323185 0.00316852 0.00591682 -0.000583674 -0.00550716 -0.00580214 0.000373564 0.00585269 0.00190433 -0.00570078 -0.0280385 -0.0241643 -0.0461354 -0.0261173 0.0270956 0.0277097 0.012187 0.00871036 -0.0331171 -0.0187148 0.00175388 -0.00211428 0.000277146 0.00107935 0.00153361 0.00113944 0.00667447 0.00428571 0.000843091 0.00369726 0.000600613 -0.00890628 -0.00917881 -0.00579933 -0.0117401 -0.0153316 -0.0553221 -0.0644876 -0.0568177 -0.0503232 -0.0388392 -0.0206588 -0.0151068 4.49094e-05 0.0303723 0.0447668 -0.0119784 -0.0602613 0.00209461 0.000743507 -0.00188287 -0.00563923 0.0016661 -7.90815e-05 -0.000194047 0.00295087 0.00221716 0.00473784 -0.000493224 -0.00649486 -0.00281462 -0.00102962 -0.0119559 -0.0224359 -0.0909702 -0.0907765 -0.078229 -0.0486291 -0.0567382 -0.0306359 -0.0597089 -0.0356192 -0.00623503 0.0547577 -0.0132869 -0.033756 0.00244292 -0.0184431 -0.0213864 -0.00900795 -0.00834845 -0.00207024 0.00435124 0.00224845 0.00334299 0.00532913 0.00082014 -0.00675063 0.00531698 0.00744368 -0.00023177 -0.0311232 -0.0460941 -0.0484839 -0.0354376 -0.0286544 -0.0577808 -0.0676142 -0.0673654 -0.0363105 -0.0327325 0.0240818 -0.0254965 -0.024632 -0.0328769 -0.0350006 -0.0226958 -0.0207764 -0.00427862 0.00201175 0.00263942 0.00316163 0.00275089 0.00522933 -0.000935864 -1.73534e-05 0.0115697 0.0163969 0.00550609 -0.00349026 0.0024259 0.000785727 0.00369885 0.0219513 -0.0533932 -0.0542926 -0.0321403 -0.0168978 -0.00509934 0.0141692 -0.0330405 -0.0194711 -0.0250226 -0.0347765 -0.0299487 -0.026156 -0.00497416 0.00559565 0.00348594 0.00309133 0.00206436 0.00337044 0.00205272 2.33576e-05 0.000580444 0.00851717 0.00349711 0.0537526 0.0219609 -0.0172626 0.0135763 0.0222433 -0.0534208 -0.0564389 -0.0610985 -0.0344402 -0.0133205 -0.0260237 -0.0236351 0.00264478 -0.0161478 -0.0180237 -0.0334933 -0.0146558 -0.00373794 -8.64165e-05 0.00602893 0.00674473 0.00691091 0.0010352 0.000451664 0.00386813 -0.00389297 0.00162056 0.0110106 0.0140861 -0.00350423 -0.00899975 0.00493189 -0.00311533 -0.0486057 -0.0585321 -0.0554164 -0.0689215 -0.0382495 -0.0241666 -0.00318263 0.018818 0.00914087 -0.0106797 -0.0217658 -0.00211341 0.00376979 0.0015832 0.00150645 0.00519906 0.0039687 0.00696287 0.00619851 4.29018e-05 -0.0126911 -0.00441911 0.00142656 -0.0196638 -0.0516131 -0.0140498 -0.040124 -0.0530956 -0.0490372 -0.0625152 -0.0741272 -0.0897409 -0.041648 0.00243023 -0.0123645 -0.0307286 -0.0023912 -0.0138033 -0.00508328 0.00363915 0.00415446 0.0053178 0.00189696 0.00470726 0.00530862 0.00517955 0.00266493 -0.0133609 -0.0304147 -0.0168467 -0.00975264 -0.0497723 -0.0639694 -0.0295627 -0.0360073 -0.0433025 -0.0533977 -0.101757 -0.106056 -0.079953 0.000456979 -0.00146091 -0.0270549 -0.0274332 -0.0259166 -0.0183178 -0.00496194 0.000926021 0.0067193 0.00439275 0.00337237 0.00569087 0.00359939 0.00492254 -0.00500716 -0.0242052 -0.0335281 -0.0205557 -0.0264946 -0.0618748 -0.0666879 -0.029811 -0.00971981 -0.00670398 -0.0287505 -0.0979022 -0.109476 -0.0297442 0.0611735 -0.0063396 -0.0292311 -0.0271557 -0.0378446 -0.0404994 -0.0177321 -0.0131559 0.00880329 0.00415918 0.00330211 0.00323396 0.00124199 0.00411208 -0.000863456 -0.0208116 -0.0268 -0.0514332 -0.0426059 -0.0461368 -0.047536 -0.0346252 -0.0345788 -0.0190939 -0.0404908 -0.122581 -0.126636 0.0376479 0.0616568 -0.00657807 -0.0137169 -0.0428925 -0.0370227 -0.0303439 -0.0248322 -0.0234902 0.00840162 0.00776362 0.000632541 0.00493007 0.00414292 0.00354025 -0.00673731 -0.0175295 -0.0152066 -0.057802 -0.0252794 -0.0179837 -0.000320019 -0.0215679 -0.062833 -0.0809594 -0.089222 -0.151226 -0.0884282 0.0542122 -0.00510708 -0.0842856 -0.0524554 -0.0393453 -0.0276653 -0.0279156 -0.019061 -0.0167021 0.0117224 0.00810808 0.0056288 0.00491803 0.0055931 0.00260411 -0.00748658 -0.0195847 -0.0188682 -0.0436915 -0.00105897 0.0370772 0.0363271 0.0744985 0.0365904 -0.0398093 -0.0982875 -0.0985386 -0.0103963 0.0137458 -0.0559123 -0.104139 -0.0781972 -0.042716 -0.0349386 -0.0235169 -0.021137 -0.0145516 0.0159494 0.00893065 0.000967125 0.00430872 -3.42705e-06 -0.000183715 -0.0126419 -0.0138718 -0.0295811 0.0134302 0.0524488 0.0166216 -0.00875963 0.0178204 0.0321258 0.0566344 0.000278999 -0.0121038 0.0111846 -0.0460502 -0.0967135 -0.10826 -0.0741422 -0.0505912 -0.030273 -0.00535158 -0.0148638 0.00438647 0.0126188 0.00227462 0.00339033 0.000491803 0.00254602 0.00176838 -0.00973153 -0.00729685 -0.0564393 -0.0434071 0.00343401 0.0140785 0.0108985 0.00687803 -0.00216841 0.0411291 0.0382329 0.0304311 0.0506201 -0.017863 -0.0910562 -0.080843 -0.0745784 -0.0525793 -0.0227738 -0.00217236 0.00124823 0.0110578 0.00883182 0.00412806 0.00296868 0.00217799 0.00638591 0.0052974 -0.00861885 -0.024322 -0.04405 -0.0227185 0.0112171 -0.00602817 -0.00352322 0.0133829 0.0214866 0.0364343 0.0288508 0.0122014 0.0334358 0.0609115 0.0450375 -0.0359404 -0.0266576 -0.013891 0.00623244 9.1293e-05 0.00509409 0.0129137 0.00455521 0.00495411 0.00238876 0.00428571 0.00602236 0.00429971 -0.00266046 -0.0229014 -0.0415983 -0.0117762 0.0261103 0.0166054 0.0195651 -0.00356657 -0.0155213 -0.0194178 -0.0524596 -0.0959637 -0.0497449 0.012551 0.0871579 0.056242 -0.00843268 -0.0118809 0.0185246 0.00153907 0.00822796 0.00506816 0.00772098 0.00430952 0.00196721 0.00393443 0.00344262 0.00247191 0.00539255 -0.00154346 -0.0155845 -0.0129822 -0.0022775 0.0140721 0.0219019 0.00736552 -0.00417547 -0.00359198 -0.0474934 -0.0974229 -0.0885604 -0.0177416 0.0109724 -2.6818e-05 0.00134087 0.00850125 0.018398 0.0164544 0.0101365 0.00802828 0.00168853 0.00323363 0.00519906 0.00540984 0.00393443 0.00475699 0.00352466 -0.00398446 -0.00739824 -0.0243953 -0.0332841 -0.0330367 -0.0383679 -0.0395564 -0.0162336 -0.0206449 -0.0423501 -0.0890347 -0.0532366 0.0170699 0.0246674 0.0211566 0.00677266 0.0150468 0.00941104 0.0121058 0.00690961 0.00305697 0.00721683 0.00381874 0.00358314 0.00512881 0.00400468 0.00147796 -0.000818401 -0.0113316 -0.0137113 -0.0222451 -0.0481203 -0.0547162 -0.0589704 -0.0277616 -0.0137614 -0.0281681 -0.0264526 -0.0404584 -0.0323023 0.0018638 0.0641941 0.0459635 0.0136935 0.0101648 0.00765343 0.00248781 0.00222209 0.00684403 0.00424288 0.00664713 0.00147541 0.00442623 0.00576112 0.00210773 0.00324464 -0.00132002 -0.000354889 -0.00738796 -0.024675 -0.0442556 -0.0299049 -0.0186992 -0.0264227 -0.0168642 -0.0326706 -0.00884485 0.0137661 0.0171251 0.0255175 -0.0191115 -0.0228483 -0.00601369 0.000982484 0.00334847 0.00130701 0.00229166 0.00358191 0.00688254 0.000702576 0.000632319 0.0059719 0.00351288 0.00250317 0.00552943 0.00635579 -0.000400236 -0.000556035 0.000247413 0.00187975 0.000447062 0.00313896 -0.00120487 0.00118976 0.0031951 -0.00049148 0.00136295 0.00122448 0.00443897 0.000373048 0.00344517 0.000237715 0.00180459 0.00339553 0.000632319 0.004637 0.00028103 0.00175644 0.00674473 0.00604215 0.00344262 0.00245902 0.00266979 0.00323206 0.00562661 0.0020752 0.00511261 0.00388772 0.00599663 0.00426579 0.000300026 0.00145271 0.00649473 0.00273386 0.00632351 0.000702675 0.00414636 0.00302503 0.00345161 0.00661535 0.0013644 0.00512881 0.00540984 0.00519906 0.00245902 0.00337237 
0.00295082 0.00168618 0.000562061 0.00470726 0.00295082 0.00442623 0.00442623 0.00028103 0.00302108 0.00147541 0.00217799 0.00519906 0.000312053 0.00535431 0.0062323 0.00429364 0.0069555 0.00611241 0.00133489 0.0059719 0.00526932 0.00393443 0.00330211 0.00386417 0.00295082 0.00379391 0.0023185 0.00259953 0.00217799 0.00393443 0.00154567 0.00428571 0.00688525 0.00337258 0.00666575 0.00536721 0.00325739 0.00617253 0.00331276 0.00364065 0.00530188 0.00314056 0.00685822 0.00848733 0.00240617 0.00286999 0.00391118 0.00291544 0.0055783 0.00244238 0.00125803 0.00680262 0.00344262 0.00337237 0.00583138 0.00498829 0.00358314 0.00351288 0.00161593 0.00161593 0.00505856 0.00400499 0.00630932 0.000148084 0.00699088 0.00550301 0.00166407 0.00242054 0.0155098 0.00703733 -0.00768001 -0.00124252 0.00774363 0.017564 0.0176918 -0.000852454 -0.00168562 0.000342123 -0.00108127 0.00638899 0.00246546 0.0028103 0.00147541 0.00126464 0.0069555 0.000632319 0.0064637 0.00046691 0.00623301 -0.00111295 0.00426797 5.16551e-05 0.00939574 0.0301691 0.0332283 0.0218217 -0.0191425 -0.0176008 -0.0219229 -0.0158896 -0.00439546 0.0340121 -0.0129983 -0.00818616 -0.0138062 -0.00658959 -0.00443218 0.00356217 0.00230256 0.0025063 0.00203747 0.00428571 0.00484778 0.00316159 0.00358314 0.00251957 0.00270559 0.00218488 0.00032426 0.016142 0.0168768 0.0496121 0.0581685 0.109486 0.0536952 0.0276148 0.00614355 -0.0358657 -0.101913 -0.0265441 -0.0117238 0.00791951 0.00624365 -0.009053 -0.0357596 -0.0318669 -0.006457 0.00125872 0.00414061 0.00470726 0.00540984 0.00435597 0.0030566 0.00295641 0.00960753 0.00798717 -0.00132735 0.0183661 0.043121 0.070533 0.0919487 0.0740338 0.114251 0.179542 0.115006 0.059413 -0.0508204 -0.0448573 -0.0227441 -0.0044553 -0.019292 -0.0350285 -0.0738062 -0.0467531 -0.0158846 0.0020915 0.00588302 0.000210753 0.00175644 0.00161593 0.0061288 0.00791338 0.00844027 -0.00414348 -0.00714151 0.0340388 0.0903747 0.0986913 0.0548841 0.0723419 0.115241 0.0779254 0.0531082 0.0719473 0.0221152 -0.0541201 -0.0110317 -0.0561618 -0.0465127 -0.00235989 -0.0345313 -0.0301484 -0.0148704 -0.00393156 -0.000824324 0.00569488 0.00505871 0.00399591 0.00905782 0.0159795 0.0161893 0.0258554 0.0460187 0.109735 0.115603 0.0853551 -0.00504568 0.0176934 0.0448738 -0.0458334 -0.0467868 0.0615049 0.0217094 -0.032424 -0.0211927 -0.0903515 -0.0665883 0.0236456 0.00460097 -0.00654714 -0.011643 -0.00826726 -0.00141864 0.0020157 0.00379456 0.00386955 0.00623517 -0.000120114 0.0208622 0.0539495 0.054541 0.119963 0.0939598 0.0303213 -0.0158135 -0.0302566 -0.0416593 -0.121507 -0.106656 -0.0468072 0.00438797 0.00299161 -0.0514049 -0.0731789 -0.0804791 -0.00703508 0.0330763 0.0130186 -0.0138807 -0.0094745 0.00378891 0.00329906 0.00386427 0.00673553 0.000297249 -0.00659443 0.0398506 0.0975399 0.0519371 0.0643984 0.0134359 -0.0481201 0.0450439 -0.0250048 -0.0939048 -0.129108 -0.121539 -0.0800064 0.0221241 0.0535422 0.0311153 -0.0327444 -0.0611698 0.0201334 0.0152718 0.0117078 -0.00755756 -0.00594818 0.0030713 0.00265551 0.00491803 0.00189904 -0.00034969 -0.0054307 0.0506161 0.0680255 0.00105471 -0.0160118 -0.0425377 -0.0540684 -0.0139668 -0.0364551 -0.11165 -0.19615 -0.136282 -0.0784955 0.052941 0.0297001 0.0576954 -0.0431426 -0.0667235 -0.0108549 -0.00241657 -0.00780629 -0.0115305 -0.00681215 0.0040235 0.00612499 0.000210773 0.00640254 0.00237942 0.0088676 0.0237276 -0.00591143 -0.0636959 -0.052878 -0.08115 -0.0788462 -0.0680273 -0.077187 -0.146355 -0.207293 -0.166972 -0.0997542 -0.0181919 -0.00830428 0.0459054 -0.00500563 -0.0439782 -0.0604114 -0.0434678 -0.0319116 -0.0284612 -0.0172064 0.00323046 0.00431737 0.0064637 0.00257113 0.000893528 0.0186196 0.0122712 -0.0306918 -0.0739166 -0.0882316 -0.075679 -0.102457 -0.107154 -0.116341 -0.162606 -0.160815 -0.177403 -0.191739 -0.148484 -0.0821841 0.0480739 0.0804236 0.0121581 -0.0314856 -0.0437786 -0.0116574 -0.003452 -0.00220266 0.00561127 0.00196721 0.0036534 0.00259802 0.00264668 0.018329 0.00665701 -0.0341811 -0.0814562 -0.0832808 -0.0755449 -0.0902576 -0.0984366 -0.0916836 -0.0813129 -0.111687 -0.180813 -0.210681 -0.1346 -0.0850018 0.02743 0.0997251 -0.017392 -0.0352272 -0.0506588 -0.0100975 0.00669563 0.0108036 0.00591171 0.00639344 0.00562061 0.0020823 0.00471184 0.00400138 -0.0131645 -0.0338557 -0.0643842 -0.0655369 -0.104691 -0.0767045 -0.0501875 -0.010449 0.0101686 -0.0501361 -0.176294 -0.207504 -0.127301 -0.0764389 -0.0242576 0.0517178 -0.016559 -0.0586972 -0.0586318 -0.0244266 -0.0135207 0.00595087 0.00362495 0.00337237 0.0049905 0.00554262 0.00384461 0.0049393 -0.0202254 -0.0289318 -0.0314367 -0.0873234 -0.124739 -0.0637914 0.0195016 0.0240797 -0.00144259 -0.129643 -0.248806 -0.247359 -0.13854 -0.0854032 0.010169 0.0924662 0.0110885 -0.076081 -0.0665872 -0.0369089 -0.000772367 0.0110126 0.00556412 0.00259869 0.00394705 0.000357979 0.00125423 0.00376897 -0.0150391 -0.0277968 -0.0374749 -0.033979 -0.0464002 -0.0531087 0.045431 0.0246019 -0.0232531 -0.131455 -0.177172 -0.200105 -0.0851574 -0.0605748 0.0974448 0.105657 -0.0136973 -0.0497806 -0.0540586 -0.0532207 -0.0103049 0.0185964 0.00847752 0.00502092 0.000210773 0.00564581 0.000897756 -0.00195132 -0.0089516 -0.0180972 -0.00167768 0.0160441 0.0344472 0.0126388 0.0828907 0.04254 0.00100076 -0.046423 -0.0634555 -0.0545414 -0.0258146 -0.0330419 0.108381 0.0188725 -0.0674056 -0.0507871 0.0102575 -0.0486909 -0.0212031 0.0127872 0.00611756 0.00257659 0.0039372 0.00442525 0.00642845 -0.00351561 0.000770832 0.000405557 0.0235273 0.0644955 0.00801516 0.00430302 0.0645886 0.0608178 0.0282857 -0.0403482 -0.0660121 -0.0635949 -0.032701 0.0321802 0.102941 0.0404085 -0.0268308 -0.0539679 -0.00806362 0.00870924 -0.00066759 0.012614 0.00302704 0.00565815 0.00238876 0.00644782 0.00245083 -9.21077e-06 -0.00556176 -0.014474 0.0131895 0.0452079 0.0199217 -0.0232641 0.0450381 0.0319583 -0.0184009 -0.040416 -0.103659 -0.0678739 -0.000630105 0.0682533 0.0288515 -0.0315212 -0.0358413 -0.0010224 -0.00232774 0.048284 0.0236143 0.0118164 0.00250591 -9.38731e-05 0.00133489 0.00688741 0.00976034 0.0111219 -0.00280164 -0.000160899 0.0140747 0.0114134 -0.0170906 -0.0421937 0.0515882 -0.00285925 -0.0550214 -0.0720291 -0.0494287 -0.0189048 0.119833 0.114978 -0.0592178 -0.0737509 -0.0158511 0.00471902 -0.00497973 0.0437144 0.055332 0.012645 0.000885279 0.00604215 0.00133489 0.00363816 0.0210361 0.0146851 -0.005931 -0.0270065 -0.0191302 -0.0268457 -0.0452017 0.00965343 0.0259036 0.0578168 -0.0185715 -0.021045 0.0531429 0.0777007 0.180776 0.0348825 -0.0733412 -0.0762821 -0.0917622 -0.0445298 -0.016409 0.00117341 0.0329169 0.00636389 0.00483486 0.0018267 0.0041452 0.0028103 0.0213449 0.0152638 -0.00391993 -0.0190143 -0.030338 -0.0453952 -0.0159919 0.0399432 0.13583 0.0716153 0.0508773 0.0580293 0.069769 0.0825311 0.0372767 -0.0358575 -0.0775273 -0.113313 -0.0755034 -0.0477428 -0.00105097 -0.00817761 -0.00387962 0.00620151 0.00525915 0.00154567 0.00112412 0.00449649 0.00536037 0.00288855 -0.00681437 -0.0106176 -0.0477658 -0.0197714 0.0371454 0.0450139 0.0925437 0.143354 0.125079 0.081981 0.0289402 -0.0160303 -0.0265763 -0.0159849 -0.0220921 -0.0381429 -0.0367877 0.0010636 0.0351557 0.015869 0.00123089 0.00686572 0.00115712 0.00323185 0.00309133 0.00611241 0.00451847 0.00348606 -0.000265487 0.00399092 -0.00847278 -0.0240529 -0.045071 -0.0451977 -0.0578934 0.00947995 0.134861 0.107535 0.022055 0.00468333 0.014362 0.0102007 -0.0273949 -0.0146779 0.0108848 0.00386702 0.0140328 0.00534631 0.00452614 0.00371715 0.00470282 0.00203747 0.00245902 0.00435597 0.00491803 0.00201552 0.00247062 -0.00401996 -0.00679045 -0.0238977 -0.031774 -0.021308 -0.0244687 -0.0297128 -0.064277 -0.0544843 -0.0298254 0.0123472 0.0166242 0.0150363 -0.0158681 -0.0128493 -0.00435187 0.00153576 0.00176902 0.000767966 0.00102353 0.00268103 0.00445225 0.00168618 0.00203747 0.00252927 0.00224824 0.00553884 0.00305342 0.00534684 0.0042344 0.00539204 0.00307356 0.0071611 0.00416991 -0.00159227 -0.0181674 -0.0188938 -0.00164529 -0.00639349 0.000643458 0.00461051 0.00455797 0.000620871 0.00558681 0.000412738 0.00142504 0.0029983 0.00112412 0.00337237 0.00323185 0.00302108 0.00667447 0.00147541 0.00161593 0.00224824 0.00245902 0.00238937 0.00542045 0.000562929 0.00425457 0.00672159 0.00289452 0.00155539 0.00270395 0.00739118 0.00373218 -0.00367356 -0.00428439 0.00677974 0.00174842 0.0069398 0.00120878 0.00606069 0.00664866 0.00119438 0.00379391 0.00028103 0.00688525 0.00540984 
